FANN_FLO_2.1
num_layers=5
learning_rate=0.700000
connection_rate=1.000000
network_type=0
learning_momentum=0.000000
training_algorithm=2
train_error_function=1
train_stop_function=0
cascade_output_change_fraction=0.010000
quickprop_decay=-0.000100
quickprop_mu=1.750000
rprop_increase_factor=1.200000
rprop_decrease_factor=0.500000
rprop_delta_min=0.000000
rprop_delta_max=50.000000
rprop_delta_zero=0.100000
cascade_output_stagnation_epochs=12
cascade_candidate_change_fraction=0.010000
cascade_candidate_stagnation_epochs=12
cascade_max_out_epochs=150
cascade_min_out_epochs=50
cascade_max_cand_epochs=150
cascade_min_cand_epochs=50
cascade_num_candidate_groups=2
bit_fail_limit=3.49999999999999980000e-001
cascade_candidate_limit=1.00000000000000000000e+003
cascade_weight_multiplier=4.00000000000000020000e-001
cascade_activation_functions_count=10
cascade_activation_functions=3 5 7 8 10 11 14 15 16 17 
cascade_activation_steepnesses_count=4
cascade_activation_steepnesses=2.50000000000000000000e-001 5.00000000000000000000e-001 7.50000000000000000000e-001 1.00000000000000000000e+000 
layer_sizes=41 81 41 3 3 
scale_included=0
neurons (num_inputs, activation_function, activation_steepness)=(0, 0, 0.00000000000000000000e+000) (0, 0, 0.00000000000000000000e+000) (0, 0, 0.00000000000000000000e+000) (0, 0, 0.00000000000000000000e+000) (0, 0, 0.00000000000000000000e+000) (0, 0, 0.00000000000000000000e+000) (0, 0, 0.00000000000000000000e+000) (0, 0, 0.00000000000000000000e+000) (0, 0, 0.00000000000000000000e+000) (0, 0, 0.00000000000000000000e+000) (0, 0, 0.00000000000000000000e+000) (0, 0, 0.00000000000000000000e+000) (0, 0, 0.00000000000000000000e+000) (0, 0, 0.00000000000000000000e+000) (0, 0, 0.00000000000000000000e+000) (0, 0, 0.00000000000000000000e+000) (0, 0, 0.00000000000000000000e+000) (0, 0, 0.00000000000000000000e+000) (0, 0, 0.00000000000000000000e+000) (0, 0, 0.00000000000000000000e+000) (0, 0, 0.00000000000000000000e+000) (0, 0, 0.00000000000000000000e+000) (0, 0, 0.00000000000000000000e+000) (0, 0, 0.00000000000000000000e+000) (0, 0, 0.00000000000000000000e+000) (0, 0, 0.00000000000000000000e+000) (0, 0, 0.00000000000000000000e+000) (0, 0, 0.00000000000000000000e+000) (0, 0, 0.00000000000000000000e+000) (0, 0, 0.00000000000000000000e+000) (0, 0, 0.00000000000000000000e+000) (0, 0, 0.00000000000000000000e+000) (0, 0, 0.00000000000000000000e+000) (0, 0, 0.00000000000000000000e+000) (0, 0, 0.00000000000000000000e+000) (0, 0, 0.00000000000000000000e+000) (0, 0, 0.00000000000000000000e+000) (0, 0, 0.00000000000000000000e+000) (0, 0, 0.00000000000000000000e+000) (0, 0, 0.00000000000000000000e+000) (0, 0, 0.00000000000000000000e+000) (41, 5, 5.00000000000000000000e-001) (41, 5, 5.00000000000000000000e-001) (41, 5, 5.00000000000000000000e-001) (41, 5, 5.00000000000000000000e-001) (41, 5, 5.00000000000000000000e-001) (41, 5, 5.00000000000000000000e-001) (41, 5, 5.00000000000000000000e-001) (41, 5, 5.00000000000000000000e-001) (41, 5, 5.00000000000000000000e-001) (41, 5, 5.00000000000000000000e-001) (41, 5, 5.00000000000000000000e-001) (41, 5, 5.00000000000000000000e-001) (41, 5, 5.00000000000000000000e-001) (41, 5, 5.00000000000000000000e-001) (41, 5, 5.00000000000000000000e-001) (41, 5, 5.00000000000000000000e-001) (41, 5, 5.00000000000000000000e-001) (41, 5, 5.00000000000000000000e-001) (41, 5, 5.00000000000000000000e-001) (41, 5, 5.00000000000000000000e-001) (41, 5, 5.00000000000000000000e-001) (41, 5, 5.00000000000000000000e-001) (41, 5, 5.00000000000000000000e-001) (41, 5, 5.00000000000000000000e-001) (41, 5, 5.00000000000000000000e-001) (41, 5, 5.00000000000000000000e-001) (41, 5, 5.00000000000000000000e-001) (41, 5, 5.00000000000000000000e-001) (41, 5, 5.00000000000000000000e-001) (41, 5, 5.00000000000000000000e-001) (41, 5, 5.00000000000000000000e-001) (41, 5, 5.00000000000000000000e-001) (41, 5, 5.00000000000000000000e-001) (41, 5, 5.00000000000000000000e-001) (41, 5, 5.00000000000000000000e-001) (41, 5, 5.00000000000000000000e-001) (41, 5, 5.00000000000000000000e-001) (41, 5, 5.00000000000000000000e-001) (41, 5, 5.00000000000000000000e-001) (41, 5, 5.00000000000000000000e-001) (41, 5, 5.00000000000000000000e-001) (41, 5, 5.00000000000000000000e-001) (41, 5, 5.00000000000000000000e-001) (41, 5, 5.00000000000000000000e-001) (41, 5, 5.00000000000000000000e-001) (41, 5, 5.00000000000000000000e-001) (41, 5, 5.00000000000000000000e-001) (41, 5, 5.00000000000000000000e-001) (41, 5, 5.00000000000000000000e-001) (41, 5, 5.00000000000000000000e-001) (41, 5, 5.00000000000000000000e-001) (41, 5, 5.00000000000000000000e-001) (41, 5, 5.00000000000000000000e-001) (41, 5, 5.00000000000000000000e-001) (41, 5, 5.00000000000000000000e-001) (41, 5, 5.00000000000000000000e-001) (41, 5, 5.00000000000000000000e-001) (41, 5, 5.00000000000000000000e-001) (41, 5, 5.00000000000000000000e-001) (41, 5, 5.00000000000000000000e-001) (41, 5, 5.00000000000000000000e-001) (41, 5, 5.00000000000000000000e-001) (41, 5, 5.00000000000000000000e-001) (41, 5, 5.00000000000000000000e-001) (41, 5, 5.00000000000000000000e-001) (41, 5, 5.00000000000000000000e-001) (41, 5, 5.00000000000000000000e-001) (41, 5, 5.00000000000000000000e-001) (41, 5, 5.00000000000000000000e-001) (41, 5, 5.00000000000000000000e-001) (41, 5, 5.00000000000000000000e-001) (41, 5, 5.00000000000000000000e-001) (41, 5, 5.00000000000000000000e-001) (41, 5, 5.00000000000000000000e-001) (41, 5, 5.00000000000000000000e-001) (41, 5, 5.00000000000000000000e-001) (41, 5, 5.00000000000000000000e-001) (41, 5, 5.00000000000000000000e-001) (41, 5, 5.00000000000000000000e-001) (41, 5, 5.00000000000000000000e-001) (0, 5, 0.00000000000000000000e+000) (81, 5, 5.00000000000000000000e-001) (81, 5, 5.00000000000000000000e-001) (81, 5, 5.00000000000000000000e-001) (81, 5, 5.00000000000000000000e-001) (81, 5, 5.00000000000000000000e-001) (81, 5, 5.00000000000000000000e-001) (81, 5, 5.00000000000000000000e-001) (81, 5, 5.00000000000000000000e-001) (81, 5, 5.00000000000000000000e-001) (81, 5, 5.00000000000000000000e-001) (81, 5, 5.00000000000000000000e-001) (81, 5, 5.00000000000000000000e-001) (81, 5, 5.00000000000000000000e-001) (81, 5, 5.00000000000000000000e-001) (81, 5, 5.00000000000000000000e-001) (81, 5, 5.00000000000000000000e-001) (81, 5, 5.00000000000000000000e-001) (81, 5, 5.00000000000000000000e-001) (81, 5, 5.00000000000000000000e-001) (81, 5, 5.00000000000000000000e-001) (81, 5, 5.00000000000000000000e-001) (81, 5, 5.00000000000000000000e-001) (81, 5, 5.00000000000000000000e-001) (81, 5, 5.00000000000000000000e-001) (81, 5, 5.00000000000000000000e-001) (81, 5, 5.00000000000000000000e-001) (81, 5, 5.00000000000000000000e-001) (81, 5, 5.00000000000000000000e-001) (81, 5, 5.00000000000000000000e-001) (81, 5, 5.00000000000000000000e-001) (81, 5, 5.00000000000000000000e-001) (81, 5, 5.00000000000000000000e-001) (81, 5, 5.00000000000000000000e-001) (81, 5, 5.00000000000000000000e-001) (81, 5, 5.00000000000000000000e-001) (81, 5, 5.00000000000000000000e-001) (81, 5, 5.00000000000000000000e-001) (81, 5, 5.00000000000000000000e-001) (81, 5, 5.00000000000000000000e-001) (81, 5, 5.00000000000000000000e-001) (0, 5, 0.00000000000000000000e+000) (41, 5, 5.00000000000000000000e-001) (41, 5, 5.00000000000000000000e-001) (0, 5, 0.00000000000000000000e+000) (3, 2, 5.00000000000000000000e-001) (3, 2, 5.00000000000000000000e-001) (0, 2, 0.00000000000000000000e+000) 
connections (connected_to_neuron, weight)=(0, -1.26001272823136720000e+003) (1, -6.22848606781529030000e+001) (2, -9.14642102255767640000e+001) (3, 2.67652814140182560000e+002) (4, -4.10141481311124440000e+002) (5, 3.99171374327921030000e+001) (6, -1.77456361877488230000e+002) (7, 1.64307469368526210000e+001) (8, -7.45209903835962000000e+002) (9, -1.34479593203912160000e+000) (10, -2.74750220734591270000e+002) (11, 2.87591689078064190000e+001) (12, 1.04551323673456930000e+002) (13, 2.38445303262498100000e-001) (14, 1.49434320819378210000e-001) (15, -7.09131763119014950000e+001) (16, 3.39540361654800900000e+000) (17, 2.24504323240152190000e+002) (18, -5.62249088370476100000e+002) (19, 1.94223678400060460000e+002) (20, -6.03748189111364240000e+002) (21, 9.27519168340303820000e+001) (22, 5.19870794705188790000e+001) (23, 1.85488568519514770000e+001) (24, -7.99454100129258480000e+001) (25, 1.09037015596415190000e+001) (26, -1.40971459205226320000e+002) (27, -4.07189138117033170000e+002) (28, -8.12935551109345770000e+000) (29, 4.34439882859424210000e+000) (30, 1.57228847008295050000e+001) (31, 2.06512301099255460000e+001) (32, 4.85847173783973020000e-001) (33, 8.55933373264595900000e+001) (34, 7.33532341034596360000e+002) (35, 1.39966012214781270000e+002) (36, -1.03922695786822730000e+002) (37, -3.25929755645191860000e+001) (38, 7.48123887606706290000e+001) (39, 1.76130468758019790000e+002) (40, -6.76566064047263990000e-002) (0, 2.66998668435702060000e+001) (1, -1.81598454408689290000e+002) (2, 7.24199714125871990000e+000) (3, -3.78737769504035950000e+001) (4, -9.52658729157581520000e+001) (5, 2.84687701738035000000e+002) (6, 9.69529475775168410000e+002) (7, 1.35510478131351300000e+001) (8, -2.34374052475824780000e+002) (9, 1.00206881565723170000e+000) (10, 7.18386121158584810000e+001) (11, 2.39885153541746980000e+001) (12, 1.25275499977226180000e+002) (13, -6.67548729436813560000e+000) (14, -2.32610771986581000000e+000) (15, -4.43945051836530310000e+001) (16, -9.72647441664223500000e+000) (17, 8.49864217898243620000e+001) (18, 3.56013315044804700000e+001) (19, 8.20867921631055570000e+001) (20, 6.22504208838327670000e+001) (21, 3.76649134218455400000e+001) (22, 6.98735429608726690000e+001) (23, 7.76262517566270560000e+000) (24, 2.32173303913361550000e+001) (25, -6.57912278118951570000e+000) (26, 1.75956419573236640000e+002) (27, 1.37365006221555050000e+001) (28, 6.11825789424747950000e+000) (29, 1.80133401653444910000e+001) (30, 2.77042844427664610000e+001) (31, -1.38936030182297400000e+002) (32, 9.69387233192321730000e-004) (33, -1.20798573959753970000e+001) (34, -1.77481980026310530000e+001) (35, 5.26033111901102760000e+001) (36, -3.32517290778014730000e+000) (37, 9.95805150561846660000e+001) (38, 6.32843286947783810000e+001) (39, 7.07506726474836820000e+001) (40, -3.43226519484773010000e-001) (0, 7.00184655257411210000e+001) (1, 1.53117555806992020000e+002) (2, -7.47740269209666050000e+000) (3, 1.12604090493222190000e+002) (4, 7.99412440499091300000e+000) (5, 2.09817038335654930000e+002) (6, 2.02913603413496130000e+002) (7, 5.26295338593997070000e+001) (8, -6.04012136416888450000e+000) (9, 1.11885827961218690000e+001) (10, 1.60220233143608820000e+002) (11, 3.05454175840825000000e+001) (12, 1.24043144836610690000e+002) (13, 7.59605174112026020000e+001) (14, -1.71677780333624890000e+000) (15, -1.35233265095311110000e+002) (16, 2.94675203769874160000e+001) (17, 4.37129528106545280000e+001) (18, 1.92160207079106300000e+002) (19, 3.28128270543818130000e+001) (20, 4.31098740325064750000e+001) (21, 4.14749405551107270000e+001) (22, 6.34647259012128590000e+001) (23, 1.63907828968361890000e+001) (24, 1.16238548639281870000e+001) (25, -1.12381312882270840000e+001) (26, 1.43087595783584620000e+002) (27, 1.05023280159823250000e+001) (28, -6.10790980379300040000e+000) (29, 4.09569553321028290000e+001) (30, 7.36263777461467300000e+001) (31, 5.69689148436424230000e+001) (32, 5.09433176484081680000e+000) (33, -6.42851154103529510000e+000) (34, -8.36777388637091590000e+000) (35, 9.22377047004842010000e+001) (36, -2.66121590534687050000e+001) (37, 1.53667454160476920000e+002) (38, -1.23934835643947740000e+002) (39, 3.93205422953044770000e+001) (40, -3.86210898579344150000e-002) (0, 4.38682057357795400000e+001) (1, 4.04559038459629650000e+001) (2, -2.09034300413521650000e+000) (3, -4.87078581132027610000e+001) (4, -3.29500449580294230000e+001) (5, 6.34312720095813210000e+001) (6, 1.02821356351458150000e+001) (7, 2.23379037680447470000e+001) (8, -2.66714994322002890000e+001) (9, 2.81805891978622600000e-001) (10, 3.28081178330717410000e+001) (11, 3.64956907321975520000e+001) (12, 1.91554256931591450000e+002) (13, 1.67305223749999320000e+001) (14, -6.53252046969774460000e-002) (15, -4.73668816763482210000e+001) (16, -3.47674372777044030000e+001) (17, 2.15462465513961940000e+002) (18, 2.62452384113395110000e+001) (19, 7.69203782106858680000e+001) (20, 1.34197176473274610000e+001) (21, 1.23052216228940470000e+002) (22, 5.67178094698445390000e+001) (23, 1.66422506438667530000e+001) (24, 2.06105716102282450000e+001) (25, -1.89415033773100870000e+000) (26, 3.46474822528869240000e+001) (27, -9.32214244679899020000e+000) (28, -4.01357533179899090000e+001) (29, 5.43511367452171900000e+001) (30, 1.03296600055808040000e+001) (31, 1.98009025128199350000e+001) (32, -2.90097466906252470000e+000) (33, 5.80358950860746340000e+000) (34, 3.11126202770328120000e+002) (35, 6.95367697102463320000e+001) (36, -2.50388303513720880000e+001) (37, 3.69014051548314650000e+001) (38, 5.36196982386286440000e+001) (39, 9.30436633340057140000e+001) (40, 3.56922454648561980000e-001) (0, -1.73736017544955460000e+001) (1, -2.09045124993932130000e+001) (2, 1.07878510040319850000e+001) (3, 8.03056603835245820000e+001) (4, 5.19189649304724340000e+001) (5, -6.93900380758760630000e+001) (6, 3.06399225721449580000e+001) (7, -6.08382418455645540000e+000) (8, 3.11699039151468900000e+001) (9, 1.18395252546479650000e-001) (10, -1.09131817058851400000e+001) (11, -1.92374267642271590000e+001) (12, -9.38055563112151420000e+001) (13, 7.55458115558793960000e+000) (14, 9.31609285145214240000e-001) (15, 7.76907542858192100000e+001) (16, 2.22983983621917870000e+001) (17, -6.60258216069627140000e+000) (18, -2.15259836633540440000e+001) (19, -4.58661983855577300000e+001) (20, -2.15631221875973790000e+001) (21, -6.79542550207186050000e+001) (22, -2.38550287543616020000e+001) (23, -7.34298715607742110000e+000) (24, 8.28330197871969180000e+000) (25, 2.05229493453063580000e+001) (26, -1.37658855760110300000e+001) (27, 2.57596811170264850000e+001) (28, 2.35897929427768600000e+001) (29, -3.67021182396676120000e+001) (30, -2.56999909192477550000e+000) (31, -7.83246861501252130000e+000) (32, 6.55059306117496830000e+000) (33, 1.00502505337301910000e+001) (34, 1.75289492374176060000e+001) (35, -1.86101172567435140000e+001) (36, 3.50302790731324900000e+001) (37, -2.43343728879490370000e+001) (38, -3.21377645577082380000e+001) (39, -5.87270605138190190000e+001) (40, 2.97495844214543860000e-004) (0, -9.44974101804595250000e+001) (1, 4.81455291124852350000e+002) (2, -3.94555952982046290000e+000) (3, -1.29084167636712440000e+002) (4, -4.74753515692104670000e+001) (5, 7.45814706375015390000e+001) (6, 6.29321063961688540000e+002) (7, 5.27153697245111910000e+001) (8, -2.21528765040748280000e+002) (9, 7.46103900859514950000e-002) (10, 5.78550079893074740000e+001) (11, 2.36533596229768860000e+001) (12, 1.35533826530481240000e+002) (13, 1.47099032733898640000e+001) (14, -3.19744441060911110000e+000) (15, -5.69546122846494430000e+001) (16, -5.76126444848837880000e+002) (17, 6.82167433897461560000e+001) (18, 1.28631617477653780000e+001) (19, 1.55941395650034790000e+002) (20, 3.03595896076510100000e+001) (21, 7.58452685151481920000e+001) (22, 4.76335875707735850000e+001) (23, 1.58050791871110670000e+001) (24, 7.91994531350660510000e+001) (25, -5.80564150188056250000e+000) (26, 2.20293536611447110000e+001) (27, 1.29609119995820520000e+002) (28, -1.44446924395343110000e+001) (29, 1.56293312744972560000e+001) (30, 2.14358926226826160000e+001) (31, 3.17443833049328210000e+001) (32, 2.12756669616268880000e-001) (33, -1.28921862279555040000e+001) (34, 8.30729452691681220000e+002) (35, 4.60409997366414020000e+002) (36, -3.56150951889425190000e+001) (37, 1.56554851560789330000e+002) (38, 5.85256109291987490000e+001) (39, 2.15197036208676710000e+002) (40, 4.59649711746920820000e-001) (0, -1.06639455918399290000e+002) (1, 9.28211400506316550000e+001) (2, 4.07579746266448330000e-001) (3, -5.16427866923451830000e+001) (4, -3.97697968062947850000e+001) (5, 5.87590740089635660000e+001) (6, -2.14881008158229860000e+002) (7, 1.90131764281223250000e+001) (8, -5.61167363795574370000e+001) (9, 4.20840866294297900000e-001) (10, 6.22408129689008260000e+001) (11, 2.81731581199326870000e+001) (12, 1.31825130747070430000e+002) (13, -5.59917787999644380000e+000) (14, 3.89512285932072160000e-001) (15, -5.45335589086191130000e+001) (16, -9.03913901137329390000e+001) (17, 6.57210956163969940000e+001) (18, 1.91691339668752650000e+001) (19, 1.73614802203404370000e+002) (20, 4.47105717704992680000e+000) (21, 6.48509387412920400000e+001) (22, 6.92662234648589110000e+001) (23, 2.75262724289780040000e+001) (24, 5.98604872201440050000e+000) (25, 7.14263538443358130000e+000) (26, 3.87390664706003350000e+001) (27, -1.83177532290304360000e+002) (28, -1.03748560947815510000e+001) (29, 1.23833596236711240000e+001) (30, -6.88450890853324950000e+002) (31, 3.65778554282506510000e+001) (32, 3.40266322418003810000e+000) (33, -7.06305662001984750000e+000) (34, 2.10364961643186770000e+002) (35, 1.51302331935288180000e+002) (36, -1.65058559080640560000e+001) (37, 6.89939591025134290000e+001) (38, 6.40227505136234780000e+001) (39, 1.21846743939392410000e+002) (40, 5.92679123716846500000e-001) (0, -1.78319624190124020000e+001) (1, -2.39761438973236880000e+001) (2, 8.32610901283935330000e+001) (3, 1.40284494380636770000e+002) (4, 2.15979561109632460000e+001) (5, -4.15068711422131140000e+001) (6, 3.24576948925465420000e+001) (7, -7.01559344749196260000e+000) (8, 3.08137183841084690000e+001) (9, 1.94276182235663480000e-001) (10, -2.34684535676604610000e+001) (11, -1.94529852116891990000e+001) (12, -6.14077983645102710000e+001) (13, -7.03842938652659100000e+000) (14, 6.50983565945731370000e-001) (15, 7.27721455031739310000e+001) (16, 2.87377211007880400000e+001) (17, -7.84508814174232590000e+000) (18, -1.97754561340142030000e+001) (19, -3.40713524713792140000e+001) (20, -3.21176040963746770000e+001) (21, -8.12576166847881470000e+001) (22, -2.32417996766300020000e+001) (23, -7.40091204304439730000e+000) (24, -8.26194771118473880000e+000) (25, 6.64134335669207160000e+001) (26, -1.67432201775742090000e+001) (27, 2.41634642741591140000e+001) (28, 4.04748359765817300000e+001) (29, -1.81188354440815220000e+001) (30, 4.66833356149101690000e+000) (31, -6.67257859498459370000e+000) (32, -6.58706063033850600000e-001) (33, 1.78903105070514460000e+001) (34, 2.30899340846838650000e+001) (35, -1.79453640476006060000e+001) (36, 2.94945771428733890000e+001) (37, -1.84032778824317660000e+001) (38, -3.19342732981487920000e+001) (39, -5.81923371735189510000e+001) (40, 2.43281084787893460000e-002) (0, -2.90651134199861650000e+001) (1, -1.85050230402961340000e+001) (2, 1.17841303133257110000e+001) (3, 1.16858764351876160000e+002) (4, 4.73045669081172660000e+001) (5, 1.07937424085922550000e-001) (6, -2.51634557873482830000e+002) (7, -2.64392941896608180000e+000) (8, 3.65099947988583440000e+001) (9, 1.12039629793260000000e-001) (10, -6.18940307677168490000e+001) (11, -1.92038083612771620000e+001) (12, -1.13471990904409890000e+002) (13, 5.66328487284703200000e+000) (14, 8.93157636144689790000e-001) (15, 6.17167152894639340000e+001) (16, 1.03244496647497710000e+002) (17, -5.38072219498841870000e+000) (18, 3.08340219607972690000e+001) (19, -4.26014668429788660000e+001) (20, -2.33710839778575380000e+001) (21, -7.41338698209284670000e+001) (22, -2.79316505371875610000e+001) (23, -8.62267894793755300000e+000) (24, -8.12366328021670370000e+000) (25, 2.01697083015787090000e+001) (26, -1.95754455129449280000e+001) (27, 3.29960775846596950000e+000) (28, 5.33074039676019070000e+001) (29, -4.25079176721493970000e+001) (30, 5.20151282754241960000e+001) (31, 3.22139543828171710000e+001) (32, -6.08965994897612720000e+000) (33, 1.36688415515080040000e+001) (34, -1.52877423770514750000e+002) (35, -2.24921770828824650000e+000) (36, 3.46608923671214410000e+001) (37, 2.38300027725861270000e+001) (38, -2.51381335162366040000e+001) (39, -5.45655623206542730000e+001) (40, -4.74715206604647550000e-002) (0, -3.60063085108434110000e+001) (1, -3.33355782542536470000e+001) (2, 5.03574764357910280000e+001) (3, 1.14372980759673150000e+002) (4, 4.82993250174919950000e+001) (5, -1.07968804874486480000e+001) (6, -3.34218708457876580000e+000) (7, -7.03085316295855910000e+000) (8, 3.18899384995757770000e+001) (9, -1.91712726208100070000e-002) (10, -2.60812369410545590000e+001) (11, -1.91672235171026910000e+001) (12, -9.30551489469102790000e+001) (13, 1.37926020132922030000e+001) (14, 7.25225151333516950000e-001) (15, 8.15571601185818760000e+001) (16, 2.54758740864051560000e+001) (17, -7.44610788479460690000e+000) (18, -3.65974784527870720000e+001) (19, -5.31451348870471990000e+001) (20, -3.39119515170310780000e+001) (21, -9.29283215099012240000e+001) (22, -2.39428832931983100000e+001) (23, -7.23273457839328950000e+000) (24, -6.96786543614091160000e+000) (25, 2.40162476169510200000e+001) (26, -2.54373651291912740000e+001) (27, 2.33418123783319690000e+001) (28, 2.22289552919393780000e+001) (29, -2.15486503805351180000e+001) (30, -2.37206673857184300000e+000) (31, -3.42609768048372200000e+001) (32, 4.98102200414982480000e+000) (33, 1.68229940133155940000e+001) (34, 2.11335668702039820000e+001) (35, -2.13484865773995160000e+001) (36, 2.62713000351731590000e+001) (37, -1.86029155237022720000e+001) (38, -3.17030680087481830000e+001) (39, -5.84222794162617940000e+001) (40, 2.50793595515637590000e-002) (0, -1.98262318237492420000e+002) (1, -1.58453890601521810000e+001) (2, 1.32709393202723260000e+001) (3, 1.00321208489167460000e+002) (4, 9.91205750648651930000e+000) (5, -9.25824857888312070000e+001) (6, 8.53929093751850270000e+001) (7, -2.45112284530083360000e+000) (8, 3.56045156166086580000e+001) (9, -1.96712636880166550000e-001) (10, -2.60644383198242760000e+001) (11, -1.64526001601513020000e+001) (12, -8.09681852657999740000e+001) (13, 4.29812082707044410000e+000) (14, -4.11345212739855910000e-002) (15, 4.46476648744675660000e+001) (16, 5.12334631373553440000e+001) (17, 1.84411060282573730000e+001) (18, -9.55089636017785710000e+000) (19, -7.72869573558309780000e+001) (20, -6.93043533468479380000e+002) (21, -1.17726764516337380000e+002) (22, -2.84750127750760990000e+001) (23, -9.99128918130417890000e+000) (24, -1.08784531602231580000e+001) (25, 2.12128271404182090000e+001) (26, 1.77246781386087250000e+000) (27, -1.26775505559139430000e+002) (28, 1.20916742091785850000e+001) (29, -3.30248348100423500000e+001) (30, -2.88223348108745370000e+000) (31, -1.60153444077711030000e+001) (32, 5.59388343137192430000e-001) (33, 1.20294679990210880000e+002) (34, 3.19682112129373550000e+001) (35, 2.25814143347061070000e+001) (36, 1.02556862345783500000e+001) (37, -1.50779312468147440000e+001) (38, -3.04381516125233030000e+001) (39, -5.27856151425331530000e+001) (40, -2.06826366512934210000e-001) (0, -3.96373096930507470000e+002) (1, -1.51432013802514460000e+001) (2, 1.33981650647265090000e+001) (3, 9.97649088539995290000e+001) (4, -6.17911868293964160000e+001) (5, -8.42126445745706890000e+001) (6, 3.60063803879255600000e+001) (7, -1.72390069446944660000e+000) (8, 3.58504610333657400000e+001) (9, 6.17023702789223580000e-001) (10, -2.06238187911633270000e+001) (11, -1.64421875639851680000e+001) (12, -7.33722256925876340000e+001) (13, 1.03639411712136430000e+001) (14, -4.25727985548516320000e-002) (15, 4.64883986095064050000e+001) (16, 5.12819921923248930000e+001) (17, 7.72067868409263980000e+001) (18, -2.06735864766175550000e+001) (19, -7.72274908001163710000e+001) (20, -6.25310190400966920000e+002) (21, -1.17585083612604610000e+002) (22, -2.24882588620816720000e+001) (23, -1.09641656348059670000e+001) (24, -9.48210289934989530000e+000) (25, 2.12080236766015670000e+001) (26, -1.18697641816544110000e+001) (27, -4.48329049511342670000e+001) (28, 1.54617802368012270000e+001) (29, -2.36690585711910800000e+001) (30, 1.04602944490131730000e+001) (31, -1.76235195807863510000e+001) (32, 1.47430092228536890000e+000) (33, 4.11610436867976620000e+001) (34, 3.30717208276708020000e+001) (35, 8.60712168005358790000e+000) (36, 2.25066560728740620000e+001) (37, -1.48441140917080930000e+001) (38, -3.15342035987566900000e+001) (39, -5.26512950734287200000e+001) (40, -1.63906083664182880000e-001) (0, -5.49550950337537300000e+002) (1, 4.26602482731543660000e+002) (2, 2.35085795758020630000e-001) (3, -5.67428050937616530000e+001) (4, -6.55969798378329330000e+001) (5, 6.73903571696710340000e+001) (6, -4.83745244131714640000e+001) (7, 2.80133773153887870000e+001) (8, -1.24217052260647680000e+002) (9, 1.47519243678296190000e-001) (10, 3.07370509170201700000e+001) (11, 2.93454118057120080000e+001) (12, 1.22711854467760940000e+002) (13, -2.47267943764939610000e+000) (14, 3.83635610506945830000e-001) (15, -7.44748811913919870000e+001) (16, -1.57922607627173700000e+002) (17, 1.06014340894686380000e+002) (18, -1.09863766347386780000e+001) (19, 2.03281081804354270000e+002) (20, 5.47869919275411910000e+000) (21, 6.48872187217531430000e+001) (22, 4.88517520919653020000e+001) (23, 3.07253049456571650000e+001) (24, 1.43545672537214010000e+001) (25, 7.55917697210160360000e+000) (26, 2.02791402860369420000e+001) (27, -3.94650749120461170000e+002) (28, -5.89934760675088940000e+001) (29, 2.34668549207512170000e+001) (30, -2.74075994600709810000e+002) (31, 2.45754742697808550000e+001) (32, 2.81463697615116360000e+000) (33, -9.20006376885674190000e+000) (34, 5.28615252400993540000e+002) (35, 3.99159853687994480000e+002) (36, -3.51154397706994810000e+001) (37, 2.99322132254665630000e+002) (38, 7.37350698200540220000e+001) (39, 1.21337332656402640000e+002) (40, 5.38309492732332310000e-001) (0, 1.59363980921651510000e+001) (1, -5.00091162733235710000e+001) (2, 1.46999999880790710000e+003) (3, 2.76233035245603030000e+001) (4, -4.12963274542485550000e+001) (5, 8.07338196960532170000e+002) (6, -3.30594950555707270000e+000) (7, -2.73542040328199610000e+001) (8, -9.68274465796242370000e+001) (9, 6.22648998108845930000e+000) (10, -5.79793774990901510000e+002) (11, 7.15299230549340640000e-001) (12, -1.54952095299988880000e+001) (13, -1.89738151822194430000e+001) (14, 1.62683433470253360000e+001) (15, 2.69790055466333990000e+000) (16, 1.72419100041610930000e+002) (17, 4.54183810009640250000e+001) (18, 2.99393121873098030000e+000) (19, -6.36502068024899830000e+001) (20, -5.74295698034184450000e+000) (21, -6.97114559517103540000e+002) (22, 3.19335352009019990000e+000) (23, -6.85712592834210490000e-001) (24, -3.13448573281247640000e-001) (25, 5.34855524491160620000e+002) (26, -2.51387120782802500000e+000) (27, -1.67560902052390470000e+001) (28, 5.28368591845704860000e+001) (29, 3.06191733648356390000e+001) (30, -1.12713649379781690000e+002) (31, 1.50062507381307910000e+000) (32, 1.88493243694721820000e+000) (33, -2.28370591552559970000e+001) (34, -2.30190010140881050000e+000) (35, 2.11656057666023580000e+001) (36, -3.00775551957141030000e+002) (37, 6.90650851401869770000e+002) (38, 2.91516568665213140000e+001) (39, 6.88778147144831370000e+001) (40, 1.32099111944635040000e+000) (0, -1.98154224975773670000e+002) (1, -1.62437027943411040000e+001) (2, 1.32309744207642890000e+001) (3, 9.89087914816493450000e+001) (4, 2.31630401638075480000e+001) (5, -9.23188798813485930000e+001) (6, 3.97245760405115220000e+001) (7, -2.38839090872685130000e+000) (8, 8.95177913163755360000e+001) (9, -2.89843417756983750000e-001) (10, -7.44748944536429890000e+001) (11, -1.64300052406197920000e+001) (12, -8.12217032502554590000e+001) (13, 6.32893255811558660000e+000) (14, -1.55135996548548480000e-001) (15, 5.67713724872970150000e+001) (16, 5.76733288772366000000e+001) (17, 2.73551254571353550000e+001) (18, -2.27563874174979790000e+001) (19, -7.71005539226065790000e+001) (20, -1.31950845196096400000e+002) (21, -7.45184287434326650000e+001) (22, -2.49646755148501500000e+001) (23, -8.51241130726552160000e+000) (24, -1.07382774345550820000e+001) (25, 2.11889501902734420000e+001) (26, -1.46912011251668810000e+001) (27, -4.33544968617763050000e+001) (28, 1.43971123869705800000e+001) (29, -2.46368521698953520000e+001) (30, -4.56266924375625930000e+000) (31, -1.87686311487510940000e+001) (32, 7.77349635361477100000e+000) (33, 3.53635550844296920000e+001) (34, 3.38592020526645500000e+001) (35, 2.86293045830723510000e+001) (36, 1.02497169933168680000e+001) (37, -1.22506950182934330000e+001) (38, -3.15896575400179100000e+001) (39, -4.53330509987232160000e+001) (40, -1.34810984163443090000e-001) (0, -7.44693709805799590000e+002) (1, 5.24149921390924650000e+002) (2, 3.20604061986466570000e-001) (3, -5.30108582494372130000e+001) (4, -1.37481180530905590000e+002) (5, 8.18976270527998910000e+001) (6, 3.74456486052910800000e+002) (7, 9.81316857350345800000e+001) (8, -4.04693125443572480000e+000) (9, -1.17955439115886760000e-003) (10, 5.91087348482697120000e+001) (11, 2.73750242419216400000e+001) (12, 1.23443951169527980000e+002) (13, -2.36962289165333880000e+000) (14, 3.65918358221742400000e-001) (15, -4.87252905089697280000e+001) (16, -5.55632482670474360000e+002) (17, 2.85671030870761290000e+002) (18, 1.59451197491561650000e+001) (19, 2.24795888536356730000e+002) (20, -1.42451315218686330000e+001) (21, 8.25028342505513450000e+001) (22, 3.35612887614487290000e+001) (23, 2.09324794041659140000e+001) (24, 2.88713248091590980000e+001) (25, 1.62641679259955430000e+000) (26, 2.58963369261080700000e+001) (27, -3.86867627367844160000e+001) (28, -1.71688788477080720000e+001) (29, 1.49139289806252040000e+001) (30, 2.83760209407929300000e+001) (31, 9.14535663687218370000e+001) (32, 1.22018015252812860000e+000) (33, -5.79777255299388190000e+000) (34, 4.38254090227904100000e+002) (35, 3.29136108374361410000e+002) (36, -3.21241558385352380000e+001) (37, 4.78248215181929980000e+001) (38, 6.18979679141040290000e+001) (39, 1.37687348618858410000e+002) (40, 5.26570230939335970000e-001) (0, 1.41748141252121060000e+002) (1, -2.60944227732460600000e+000) (2, 4.15002270647533040000e+001) (3, 1.92339601679789670000e+001) (4, 8.23139358181857260000e+000) (5, -5.07974306538667440000e+000) (6, -1.56278295522474920000e+001) (7, -6.53331260852616720000e-001) (8, 1.79545403362862290000e+001) (9, 1.91324907421033640000e-001) (10, -2.55142704488824710000e+001) (11, -2.96058254138050670000e+000) (12, -1.47543646682089590000e+001) (13, -2.67741322468573450000e+000) (14, 9.82604750722835930000e-001) (15, 1.24612919311598330000e+001) (16, 6.31509908189477260000e+001) (17, -8.06955451707814430000e+001) (18, 1.57783811167521950000e+001) (19, -8.84014044584532850000e+000) (20, -2.20431552044404560000e+001) (21, -3.78687068324823880000e+001) (22, -1.80136717881544930000e+000) (23, -6.01689072152245610000e+000) (24, -5.59334221355605440000e+000) (25, 4.21866154524842860000e+000) (26, -5.28516985906381080000e-001) (27, 7.23702639351018420000e-001) (28, 9.35375790867056270000e+000) (29, -6.34941464477877030000e+000) (30, -1.84264945245758230000e+000) (31, -2.30891660192271830000e+000) (32, 3.18033990217894850000e+000) (33, 4.66535631204912170000e+000) (34, 4.05026961179937220000e+000) (35, 9.04115415291874000000e-001) (36, -6.12012797307859700000e+001) (37, 3.16284408545853870000e+000) (38, -5.68441801289880560000e+000) (39, -9.31584388291540400000e+000) (40, -3.10569626342303940000e-002) (0, -2.89830985880144740000e+002) (1, 5.94205337763959620000e+002) (2, -1.06253885437035230000e-001) (3, -1.39671120417844780000e+002) (4, -2.95985433752992400000e+001) (5, 5.87160633027445940000e+001) (6, -1.20140062620252940000e+001) (7, 1.05066116575499480000e+001) (8, -1.62871859319134050000e+002) (9, 3.60446929521138490000e-001) (10, 5.86945736447381920000e+001) (11, 2.73357764746043730000e+001) (12, 1.20917435367262530000e+002) (13, 6.96644417318009880000e+000) (14, 5.22140212375227670000e-001) (15, -3.56745509875762250000e+001) (16, -8.42022518884390370000e+001) (17, 4.21112206324052350000e+001) (18, 2.50025354707047040000e+001) (19, 1.67330905532938970000e+002) (20, 6.23985379742830870000e+001) (21, 6.58093912394483310000e+001) (22, 3.98978404350129520000e+001) (23, 2.23259628708887410000e+001) (24, 3.71252933290583800000e+001) (25, -7.30795912750862800000e+000) (26, 2.58466309708089060000e+001) (27, 3.04149841678453340000e+000) (28, -6.22196975233211450000e+000) (29, 1.59646547152059720000e+001) (30, -1.49235338397879470000e+002) (31, 7.55402573105587150000e+001) (32, 1.95962101687923430000e+000) (33, -1.60109207277696900000e+001) (34, 3.85417104483931450000e+000) (35, 7.11737326641780610000e+001) (36, -3.39578374686783280000e+001) (37, 4.23838536794864240000e+002) (38, 8.03983288400083750000e+001) (39, 1.16473873016429050000e+002) (40, 5.85281449044796060000e-001) (0, -4.04623263656543710000e+002) (1, -1.51728278465853150000e+001) (2, 1.30733098563236360000e+001) (3, 9.90696866328899970000e+001) (4, 2.14821656646052470000e+001) (5, -9.27227140603155820000e+001) (6, 4.40844899750171000000e+001) (7, -2.33593730140606580000e+000) (8, 3.59313265133714810000e+001) (9, 3.81043748379502330000e-001) (10, -2.49927175881529640000e+001) (11, -1.68926276153112130000e+001) (12, -8.04209949625872160000e+001) (13, 1.45324996664883910000e+001) (14, -8.26834446717582770000e-001) (15, 4.65273573489957220000e+001) (16, 5.13263708529441520000e+001) (17, 1.80798372396752780000e+001) (18, -2.06284082494909560000e+001) (19, -7.73465703899601210000e+001) (20, -6.25172562229373970000e+002) (21, -1.17728497916265000000e+002) (22, -2.71347989851987710000e+001) (23, -1.09170403921554580000e+001) (24, -9.56131432066079690000e+000) (25, 2.11214086878573150000e+001) (26, -7.83299637551514750000e+000) (27, -1.26837541693442050000e+002) (28, 1.21299798643003880000e+001) (29, -2.35582309389426780000e+001) (30, -2.76012097657920790000e-001) (31, -1.53812417343613350000e+001) (32, 1.52392860634212780000e+000) (33, 4.10509179551208520000e+001) (34, 3.29648848886806860000e+001) (35, 2.31139722837589190000e+001) (36, 2.30316214331403760000e+001) (37, -1.51711319266832040000e+001) (38, -3.14583525240141700000e+001) (39, -5.27376293019443450000e+001) (40, -1.84237233085987050000e-001) (0, 4.44654349506938120000e+001) (1, 4.19960880710536980000e+001) (2, -2.89934024483788160000e+000) (3, -4.84486526212445410000e+001) (4, -3.51669777170291480000e+001) (5, 6.22849391835053510000e+001) (6, -3.78011444673913170000e+000) (7, 2.00758402940492470000e+001) (8, -3.17555388490044410000e+001) (9, 1.33622215721016930000e-001) (10, 3.05502203079010570000e+001) (11, 3.66428701853095120000e+001) (12, 1.52847577393476460000e+002) (13, 1.86922371203768590000e+001) (14, -1.58828371142868270000e-001) (15, -4.69472741637727540000e+001) (16, -1.02586537952274400000e+002) (17, 1.44209840861522910000e+002) (18, 2.58916418055922330000e+001) (19, 8.31390634557451160000e+001) (20, 3.07887151638753240000e+001) (21, 8.46346712264854520000e+001) (22, 4.53391604883267830000e+001) (23, 1.86917431555437400000e+001) (24, 1.98434047398127940000e+001) (25, -2.10123920516628890000e+000) (26, 2.28304228212340060000e+001) (27, -9.55473930973727370000e+000) (28, -3.18077330924409620000e+001) (29, 5.37557202043960340000e+001) (30, -2.88232540107069210000e+002) (31, 2.18733791873011290000e+001) (32, -3.03791963197147030000e+000) (33, -5.59991547420373160000e-002) (34, 1.94368404330505200000e+002) (35, 6.33167662077937480000e+001) (36, -2.48570725884607850000e+001) (37, 2.08052130795065190000e+001) (38, 5.65052345664479740000e+001) (39, 9.72641724002670140000e+001) (40, 3.37085235588604090000e-001) (0, -1.35169270974303100000e+001) (1, -6.61302057166239980000e+000) (2, 3.51089369360429870000e+000) (3, 8.52932020991391650000e+001) (4, 8.19133992016371480000e+001) (5, -4.11261230933421160000e+001) (6, 4.24568568249410280000e+001) (7, -6.22881427472931910000e+000) (8, 5.05278206972253020000e+001) (9, 6.16078461874865900000e-002) (10, -1.55711488975618620000e+001) (11, -1.99046460318004850000e+001) (12, -8.47856973975447520000e+001) (13, -4.62423384414409530000e+000) (14, 6.15876677881849520000e-001) (15, 7.94139176751627640000e+001) (16, 4.97394905151638010000e+001) (17, -2.21516411399429740000e+001) (18, -1.10828391841279310000e+001) (19, -8.83482308416403870000e+001) (20, -2.12991574356109650000e+001) (21, -6.16385675755551860000e+001) (22, -2.35247001965221120000e+001) (23, -6.70722017264414030000e+000) (24, -8.24132729111323490000e+000) (25, 2.15902802170377730000e+001) (26, -1.38169384834689660000e+000) (27, 4.91624009216942570000e+001) (28, 2.27162895430512180000e+001) (29, 1.29883638956900740000e+002) (30, -2.67721088249277050000e+000) (31, -2.21284326479300470000e+001) (32, 1.95164726332418040000e+001) (33, -6.71185170365287130000e+000) (34, -8.96894884246297490000e-001) (35, -2.87663300480934690000e+001) (36, 4.29087752990216490000e+001) (37, 1.08133885402621890000e+002) (38, -4.99104556609668960000e+001) (39, -5.82645396737257850000e+001) (40, -6.54755042166120450000e-005) (0, -5.71773019689312110000e+001) (1, -1.27175877140751890000e+002) (2, 5.81059434413654570000e+002) (3, 7.79502963393103410000e+001) (4, 4.91583696379511390000e+001) (5, -1.25832050477351170000e+002) (6, -1.14966847640063260000e+002) (7, -7.72311286395223370000e+000) (8, 2.24135341617175070000e+001) (9, -7.83929659867617090000e-002) (10, -2.13038592582964950000e+002) (11, -1.93278813615718010000e+001) (12, -1.03910060065849250000e+002) (13, -1.93534820424060610000e+001) (14, 9.58473515809656120000e-001) (15, 5.09581505613225970000e+001) (16, -8.50863479789863320000e+000) (17, -4.52239474778550220000e+000) (18, -5.97612121469757940000e+001) (19, -4.31214180288357480000e+001) (20, -2.88879943377197850000e+001) (21, -1.91996477095241400000e+002) (22, -2.81592121454663410000e+001) (23, -7.07291859155573550000e+000) (24, -8.19390134496561550000e+000) (25, 2.18277521613824560000e+001) (26, -7.73533078889881840000e+001) (27, -1.83004237314808170000e+002) (28, 1.48438314848618620000e+001) (29, -4.38625446896630960000e+001) (30, -3.82981162440475620000e+000) (31, -6.68677578704282370000e+000) (32, -2.39915215485754900000e+000) (33, 2.00832733633831530000e+001) (34, 3.94401007679851500000e+001) (35, -4.13625640077061800000e+000) (36, -8.61501787202135820000e+000) (37, -6.16237000217924520000e+001) (38, -2.43453040445796990000e+001) (39, -4.39048805552225190000e+001) (40, -4.28572178412999080000e-002) (0, 3.53999919771572070000e+001) (1, 4.90917793149449720000e+002) (2, -4.34999342563208560000e+000) (3, -1.17391299754380870000e+002) (4, -3.45955832338835950000e+001) (5, 5.86486504806743840000e+001) (6, 7.70317141091596550000e+000) (7, 6.53015371631847060000e+000) (8, -2.29785036807673320000e+002) (9, 1.72183396459721280000e-001) (10, 5.72340440304837870000e+001) (11, 2.61504105502070030000e+001) (12, 1.21052377995705770000e+002) (13, 2.33544308602077490000e+001) (14, 5.32831949165947780000e-001) (15, -4.06258183794112780000e+001) (16, -1.46889957240709040000e+002) (17, 8.38899225171553700000e+001) (18, 2.34063049961035110000e+001) (19, 1.68060451406674760000e+002) (20, 3.75850941731069100000e+001) (21, 1.07346116994430180000e+002) (22, 5.85874405628306080000e+001) (23, 3.84590408619616890000e+001) (24, 2.53612411354098530000e+002) (25, -7.18371781003700780000e+000) (26, 2.39213604933361130000e+001) (27, 2.81620204233920380000e+000) (28, -5.63071129410718000000e+001) (29, 1.62872833840760410000e+001) (30, -1.57471546018479220000e+002) (31, 3.14791044571739680000e+001) (32, 1.01317277168362230000e+000) (33, -2.46120515522386290000e+001) (34, 3.46655199933705300000e-001) (35, 9.09838765575529890000e+001) (36, -5.58911512317468610000e+001) (37, 3.68939199061167980000e+002) (38, 8.58211163542299150000e+001) (39, 1.53514238777741070000e+002) (40, 5.72564573622088010000e-001) (0, -1.95185635365198720000e+002) (1, -1.74681398116021180000e+001) (2, 1.25702238596836880000e+001) (3, 9.95080598668172770000e+001) (4, 2.30450958301052220000e+001) (5, -9.20543035819849960000e+001) (6, 4.59790403515063910000e+001) (7, -2.40199563909451190000e+000) (8, 3.68125571570357120000e+001) (9, -2.34185461007783060000e-001) (10, -3.07103720646717630000e+001) (11, -1.68189703857684800000e+001) (12, -8.03971572954740170000e+001) (13, 6.41472357970105110000e+000) (14, -3.41910065300240070000e-002) (15, 4.27541384838229130000e+001) (16, 5.77941357687077470000e+001) (17, 6.56332466180501090000e+001) (18, -2.27754364957240620000e+001) (19, -7.74410423913846980000e+001) (20, -1.31810970931498500000e+002) (21, -7.45569114094482900000e+001) (22, -2.48888332311840160000e+001) (23, -8.70613464081502460000e+000) (24, -1.11229967687823060000e+001) (25, 2.45272965098846360000e+001) (26, -1.18090708207892940000e+001) (27, -4.36151452441539290000e+001) (28, 1.47511336067341860000e+001) (29, -2.74413446635669550000e+001) (30, -6.16721952102428080000e+000) (31, -1.87413362261310360000e+001) (32, 8.31648381749311330000e-001) (33, 3.52257071877643640000e+001) (34, 3.36405778323145550000e+001) (35, 8.01531724850475950000e+000) (36, 1.12129236857974530000e+001) (37, -1.49165252752416800000e+001) (38, -2.49058376663443400000e+001) (39, -4.68026445539010110000e+001) (40, -1.24712080906846800000e-001) (0, 2.11390513227090830000e+001) (1, -5.18203982205942570000e+001) (2, 1.46999999880790710000e+003) (3, 4.07373016017203680000e+001) (4, -6.74360917890759740000e+000) (5, 7.44750725790783350000e+002) (6, -2.26291916980230080000e+000) (7, -2.53301819554813470000e+001) (8, -1.02788507591990880000e+002) (9, 1.50745595552045870000e+001) (10, -6.52325712373098210000e+002) (11, 2.06587135671199460000e+000) (12, -1.57517803605924930000e+001) (13, -1.93784559237117620000e+001) (14, 3.73801991309147540000e+001) (15, 4.10720086692599380000e+000) (16, 5.09528730935789440000e+001) (17, -8.36058806463506980000e+001) (18, 5.21538965619279440000e+000) (19, -3.15793387173355430000e+002) (20, -9.60254042990052530000e+000) (21, -8.09636316094640960000e+002) (22, 3.60448424402059380000e+000) (23, -1.44747191302977640000e-001) (24, -7.03722667519383950000e-001) (25, 2.92537472867694080000e+002) (26, -2.20533187509178670000e+000) (27, 2.01470823674724610000e+002) (28, 7.56661339035238830000e+002) (29, 9.92040581567812440000e+001) (30, -1.14613779455923140000e+002) (31, 2.73664910998596290000e+000) (32, 3.58135385498197990000e+000) (33, 8.59157490895742090000e+000) (34, 2.86783499159997970000e+000) (35, 2.35424821301389610000e+001) (36, -1.22632039332057940000e+002) (37, 3.27184075728429490000e+002) (38, 3.01503162768138080000e+001) (39, 5.18311875368096650000e+001) (40, 7.65264329809955290000e-001) (0, -7.97387920720693870000e+001) (1, 1.51302046703925730000e+002) (2, 2.66845084386213180000e-001) (3, -5.53776415220662340000e+001) (4, -7.43045902731699780000e+001) (5, 6.81867699143099910000e+001) (6, 8.99729442612770300000e+002) (7, 3.48220169385960290000e+001) (8, -2.10551728233355110000e+002) (9, 2.72115022876674220000e-001) (10, 5.74971605509884330000e+001) (11, 2.77840422046041590000e+001) (12, 1.21578310650765430000e+002) (13, 9.88674130780122560000e-001) (14, 1.83446647844467290000e-001) (15, -4.73879454090323340000e+001) (16, -1.59100394376676350000e+002) (17, 7.21216843645407690000e+001) (18, 1.77519301674445560000e+001) (19, 1.65683107250105730000e+002) (20, -6.37897160356952140000e+001) (21, 7.14627736755702330000e+001) (22, 1.40790008757328340000e+002) (23, 2.88463666534448430000e+001) (24, 9.87367673207401710000e+000) (25, 8.99277931673119110000e+000) (26, 4.83784673097468530000e+001) (27, -3.18131460886093750000e+002) (28, -7.77423232436378250000e+000) (29, 2.18190862851375510000e+001) (30, 3.31357321366704620000e+001) (31, 8.29974339448162790000e+001) (32, 1.03395915827365490000e+000) (33, -2.96067394421005090000e+000) (34, 5.05518465046622510000e+002) (35, 1.26772971186287250000e+002) (36, -3.01089684774972960000e+001) (37, 1.69799272921794940000e+002) (38, 5.42722554693948280000e+001) (39, 1.25499462962951140000e+002) (40, 5.14058236258732700000e-001) (0, -5.71768347141956570000e-001) (1, 4.83626019597401070000e+002) (2, 5.28774908281261720000e-001) (3, -6.87460513299359800000e+001) (4, -1.86910427493832860000e+001) (5, 5.57800073153124320000e+001) (6, 7.09365413755641610000e+002) (7, 2.63038602481730730000e+001) (8, 1.02256620416879810000e+002) (9, 4.69466645935209870000e-001) (10, 6.20795096099891950000e+001) (11, 2.78617059240400130000e+001) (12, 1.21232657034918350000e+002) (13, -4.29272565274110640000e+000) (14, -3.22595807801632050000e-001) (15, -5.37208901032353550000e+001) (16, -3.02436607147237340000e+002) (17, 3.85419166645648160000e+001) (18, 2.74976537262795800000e+001) (19, 1.62049786311434500000e+002) (20, 4.10458561699758280000e+001) (21, 7.86031824357172010000e+001) (22, 4.24232768973090090000e+001) (23, 1.49941220325863540000e+001) (24, 1.81190588931849670000e+002) (25, -7.94287535289352500000e+000) (26, 3.38457163282494520000e+001) (27, -8.51552598697796980000e+000) (28, -1.03877138009534220000e+001) (29, 7.65820755483495930000e+000) (30, 6.30179306437247710000e+000) (31, 1.57042908371530250000e+002) (32, 8.24968228843297900000e-001) (33, -9.74744895683343950000e+000) (34, 3.83706431418878590000e+002) (35, 2.20724823652872060000e+002) (36, -3.05615488489588960000e+001) (37, 4.87703123382831550000e+001) (38, 6.38720838885064740000e+001) (39, 9.66446324988732930000e+001) (40, 4.96302337031169880000e-001) (0, -5.00232915295140120000e+001) (1, 9.69266095724231750000e+001) (2, 4.66248593264585180000e-001) (3, -5.06781013561550750000e+001) (4, -3.60250397569135570000e+001) (5, 6.14967238497836630000e+001) (6, -1.76541829618667440000e+002) (7, 1.59152565090604430000e+001) (8, -3.19284422586434040000e+001) (9, 4.65849697455795520000e-001) (10, 6.15344760007707240000e+001) (11, 2.76485356433829990000e+001) (12, 1.21115853721139640000e+002) (13, 1.17889425563588470000e+001) (14, 3.99159208282638510000e-001) (15, -4.79426015708545140000e+001) (16, -1.02677386172934010000e+002) (17, 7.42346874805690650000e+001) (18, 2.18126906730765060000e+001) (19, 2.27990616769209000000e+002) (20, 2.40261759820407050000e+001) (21, 6.52717334321628610000e+001) (22, 7.65824758190097870000e+001) (23, 1.92085474638549240000e+001) (24, 2.10988748675497620000e+002) (25, 6.24330501308495660000e+000) (26, 1.14926239769879250000e+002) (27, -1.94063419834022880000e+002) (28, -1.44287189782729380000e+001) (29, 1.46388883026342910000e+001) (30, -7.98819199059456200000e+002) (31, 4.27655828934232150000e+001) (32, 2.13368690831915320000e+000) (33, -9.30412306683074420000e+000) (34, 2.82259391171043500000e+001) (35, 1.65320700392875750000e+002) (36, -5.02594151009419580000e+000) (37, 3.91333916429837100000e+001) (38, 7.88417790681445180000e+001) (39, 1.18263456188968010000e+002) (40, 5.20286191608704930000e-001) (0, -3.55229857022919020000e+002) (1, -1.51713263832316820000e+001) (2, 1.32479727117799140000e+001) (3, 9.96095743738926980000e+001) (4, 3.17785847293034570000e+001) (5, -9.26872404230327330000e+001) (6, 4.95367201044016740000e+001) (7, -2.44094828028361020000e+000) (8, 3.77202614592699630000e+001) (9, 2.68789909354458400000e-001) (10, -2.59192367599133710000e+001) (11, -1.64407166107590790000e+001) (12, -8.04490431790943460000e+001) (13, 9.89893966111474020000e+000) (14, -4.56404286397776190000e-001) (15, 4.64841993877761720000e+001) (16, 5.63973205373404770000e+001) (17, 8.07602551001471910000e+001) (18, -9.68206091840968770000e+000) (19, -7.71978094006517640000e+001) (20, -6.25233255582788500000e+002) (21, -1.17685834342046250000e+002) (22, -2.69549959018914290000e+001) (23, -1.11916923607831670000e+001) (24, -1.00398295794045450000e+001) (25, 2.10884497034823150000e+001) (26, -7.97775346006362000000e+000) (27, -1.26800334659956870000e+002) (28, 1.54514774994459940000e+001) (29, -3.56396563446646720000e+001) (30, -1.02973252877670100000e+000) (31, -1.75305520509211840000e+001) (32, 1.41995522512083340000e+000) (33, 4.11381555032039120000e+001) (34, 3.36755392087871210000e+001) (35, 1.23212958411796000000e+001) (36, 1.01806557177452830000e+001) (37, -1.48914093084448050000e+001) (38, -3.11181046583309390000e+001) (39, -5.27843578160792290000e+001) (40, -1.67256731035413390000e-001) (0, -1.68157397608564590000e+002) (1, 5.45350711253950640000e+002) (2, -4.54719300882939170000e+001) (3, -7.26168637456749200000e+001) (4, 1.87753909625777280000e+001) (5, 5.75648272660612290000e+001) (6, 3.04109661741853870000e+002) (7, 1.78900520894531710000e+001) (8, -2.51736992024712810000e+002) (9, 3.09711056301263830000e-001) (10, 5.13487819252326290000e+001) (11, 2.39655272722636960000e+001) (12, 1.34379688546748270000e+002) (13, 6.12341125455716370000e+000) (14, 6.68002772768610310000e-001) (15, -7.01276195077086730000e+001) (16, -1.12128461208548540000e+002) (17, 1.12782438751551400000e+002) (18, 2.32681978610889960000e+001) (19, 1.46197425066268440000e+002) (20, -9.41299931053161920000e+000) (21, 1.55686091537490680000e+002) (22, 1.76183093889275430000e+002) (23, 1.69400476919084820000e+001) (24, 1.39286701112233970000e+002) (25, -9.35351977534118360000e+000) (26, 3.84397894235698700000e+001) (27, -7.50718659354164830000e+001) (28, -1.19704826921881510000e+001) (29, 1.52172493905339030000e+001) (30, 1.43257086503033340000e+001) (31, 1.05208324963840100000e+002) (32, 4.74179243537948330000e-001) (33, -2.43171234544890460000e+001) (34, 8.60305483997240000000e+002) (35, 4.25370481167859960000e+002) (36, -1.73457738019177010000e+001) (37, 1.60595920580207150000e+002) (38, 8.89623417710710810000e+001) (39, 1.02926574447284840000e+002) (40, 4.22218797018600040000e-001) (0, -8.21943444800911720000e+002) (1, 2.04198121088069970000e+002) (2, -5.15543390038319590000e+000) (3, -3.03731915351076620000e+001) (4, -1.49634681877230410000e+002) (5, 5.90772279980955940000e+001) (6, 4.90315497284178720000e+002) (7, 5.63878575252819520000e+001) (8, -2.80660826585498740000e+002) (9, 1.78047903044082190000e-001) (10, 2.45572226883702530000e+001) (11, 2.75604698176256950000e+001) (12, 1.07114326485846330000e+002) (13, 2.14672399714472690000e+000) (14, 2.97119855149211130000e-001) (15, -6.08227876600537560000e+001) (16, -3.64187469794844960000e+002) (17, 2.66040061866881440000e+002) (18, 3.35782418107071610000e+000) (19, 2.82439701046709160000e+002) (20, -1.13861929937619660000e+002) (21, 6.56952528000029760000e+001) (22, 3.71399744489642960000e+001) (23, 5.54977916488529740000e+001) (24, 2.10110389568462320000e+002) (25, 5.59806624618641460000e+000) (26, 1.29187932020915090000e+001) (27, -2.10526171501680950000e+002) (28, -1.17524221911524300000e+001) (29, 1.22199175335947800000e+001) (30, -7.69553216936100260000e+000) (31, 5.18241563527153130000e+001) (32, 1.46902104128998250000e+000) (33, 1.75002946375912280000e+001) (34, 7.19693660505143610000e+002) (35, 2.54843342242761340000e+002) (36, -2.94376176612839340000e+001) (37, 8.48642215033842720000e+001) (38, 7.63251230233373830000e+001) (39, 1.00411846637908190000e+001) (40, 4.99170175229748160000e-001) (0, -1.57967769772755970000e+001) (1, -1.28751952130682410000e+002) (2, 3.31206969685296430000e+001) (3, 1.11541287425718660000e+002) (4, 4.03463465382996420000e+001) (5, -3.76825508054305440000e+001) (6, 2.48056624948985240000e+001) (7, -7.50764238693721970000e+000) (8, 2.93104758927961020000e+001) (9, -2.34093583471762370000e-002) (10, -3.58934612555588900000e+001) (11, -1.90805526407562280000e+001) (12, -7.82266475641753520000e+001) (13, 1.36634622834951550000e+001) (14, 9.05149216866002360000e-001) (15, 8.19530304548142960000e+001) (16, 2.61928867343181620000e+001) (17, -4.42033656835281260000e+000) (18, -2.04183324216842980000e+001) (19, -4.68585139016647570000e+001) (20, -4.73188545104468190000e+001) (21, -3.62108897645949100000e+001) (22, -2.36749250804745910000e+001) (23, -7.44598796131142930000e+000) (24, -1.01147972132393690000e+001) (25, 4.00193346771112600000e+001) (26, -2.30672081488069440000e+001) (27, 2.72629823028322560000e+001) (28, 2.55121662813938420000e+001) (29, -2.24386834932806810000e+001) (30, 7.01991781651602410000e+000) (31, -2.62424864888843030000e+001) (32, -4.12822078114279680000e-001) (33, 2.07651904027544840000e+001) (34, 2.13927570427964720000e+001) (35, -1.43281318074816170000e+001) (36, 2.45948194089857670000e+001) (37, -2.21538580707993940000e+001) (38, -2.64664294401829600000e+001) (39, -4.89802188854293950000e+001) (40, 3.05920371069735820000e-002) (0, -3.25832764573890190000e+002) (1, 7.87350171609494170000e+002) (2, 2.15882135567243560000e+000) (3, -5.96344829916528030000e+001) (4, -1.00929548257518920000e+001) (5, 5.23222992959967070000e+001) (6, -8.73433951901363770000e+001) (7, 1.35429544732532720000e+002) (8, -3.47597834026672390000e+001) (9, 1.07901290689238230000e-001) (10, 9.49398473673668660000e+001) (11, 3.08359175146237060000e+001) (12, 1.17190454782049510000e+002) (13, 1.15608402526974570000e+001) (14, 4.95105412683566500000e-001) (15, -4.78065152223358540000e+001) (16, -1.51339518672788130000e+002) (17, 2.68277785194841060000e+001) (18, 1.40441401899776700000e+001) (19, -3.01738332851778350000e+001) (20, 2.93618092257926020000e+001) (21, 6.86762795016849310000e+001) (22, 3.40121818090307360000e+001) (23, 5.10343602647047660000e+001) (24, 9.80448680322327280000e+001) (25, -8.49848721711119740000e+000) (26, 3.84971786317141560000e+001) (27, 6.18425484200065300000e+001) (28, -1.79267195862236580000e+001) (29, 1.39835087703117700000e+001) (30, -1.06677492451892700000e+003) (31, 4.22144820411429150000e+001) (32, 1.62700535729409900000e+000) (33, -9.47365743761084290000e+000) (34, 8.34205892524167610000e+001) (35, 1.41686778139844990000e+002) (36, -4.10467768966272710000e+001) (37, 4.80120545831484970000e+001) (38, 6.04742101623226350000e+001) (39, 2.91000916841025970000e+002) (40, 1.12175618829174060000e+000) (0, 4.03633561765669760000e+000) (1, -4.38754074710800240000e+001) (2, 1.43451137454372250000e+003) (3, 2.24973832539321030000e+001) (4, -4.50984984917819180000e+000) (5, 2.72229741305753340000e+001) (6, -1.16470943589712460000e+002) (7, -7.45643296914664780000e+000) (8, -7.25242900488558040000e+001) (9, 3.33872249109031930000e+001) (10, -6.52295957734426340000e+002) (11, 1.25303821581342090000e+001) (12, -6.47926141710242740000e+000) (13, -1.11945301690926050000e+001) (14, 3.48169363432511790000e+001) (15, 1.32071601207181510000e+000) (16, 1.35349235414470180000e+001) (17, -3.27646072494402850000e+000) (18, -2.62753351376515990000e+000) (19, -7.37807353401950220000e+001) (20, -2.71574221253126250000e+000) (21, -1.80784493600224320000e+002) (22, 1.91158015232767100000e+000) (23, -6.07687500082540690000e-001) (24, 2.50706113487161490000e-001) (25, 5.31962275112213870000e+001) (26, -8.85150750963937580000e-001) (27, 4.82447534098498140000e+001) (28, 2.23076940538380380000e+001) (29, 3.33044408508243000000e+001) (30, -1.07751987607326850000e+002) (31, 3.33480066548226260000e-002) (32, 1.09007506916240840000e+000) (33, -2.06792378302994710000e+001) (34, 1.15595673828487260000e+000) (35, 9.73194946225020630000e+000) (36, -2.75856883301356160000e+002) (37, 4.65045360770154370000e+001) (38, 6.28768512487285940000e+000) (39, 5.18288775885050090000e+001) (40, 6.66021019480137700000e-001) (0, -1.58605081471897710000e+001) (1, -2.13142153920152250000e+001) (2, 2.99588526447838070000e+001) (3, 9.35104356003299420000e+001) (4, 4.73025478297284470000e+001) (5, -3.82338328959810530000e+001) (6, 2.99025355052740130000e+001) (7, -6.87549590397178180000e+000) (8, 2.90847067346527660000e+001) (9, -4.28547352886362380000e-002) (10, -1.94936714198005600000e+001) (11, -1.93459267411881620000e+001) (12, -7.54784373015712050000e+001) (13, 3.66329289153596570000e+000) (14, 6.54525132355491810000e-001) (15, 9.27548569266350140000e+001) (16, 3.05449681841836560000e+001) (17, -9.69599623254353030000e+000) (18, -2.66631572769803280000e+001) (19, -3.50300724915889670000e+001) (20, -2.66902933563650000000e+001) (21, -1.18967818780527080000e+002) (22, -2.35528288596886100000e+001) (23, -6.92273689041896480000e+000) (24, -6.51225101175428290000e+000) (25, 3.38141840869490760000e+001) (26, -1.52334314252072770000e+001) (27, 2.27685914381250180000e+001) (28, 3.26187994285931350000e+001) (29, -1.98238049229746240000e+001) (30, -1.24800781724730790000e+000) (31, -5.38212096634133900000e+000) (32, 4.06537590630092890000e+001) (33, 1.69882286187092400000e+001) (34, 2.34335275456509220000e+001) (35, -2.09934844664789960000e+001) (36, 3.53441231795811750000e+001) (37, -2.02564133330543400000e+001) (38, -3.30554559577386230000e+001) (39, -5.73460319772142310000e+001) (40, 2.11011773522945950000e-002) (0, 6.70557949691466180000e+001) (1, 1.31998151263485970000e+002) (2, 1.58506134920917390000e+001) (3, -1.16064878055014690000e+000) (4, 1.11044107829342650000e+001) (5, 1.08650612224823760000e+002) (6, 7.02820775569697960000e+001) (7, 3.71372929082860210000e+001) (8, -1.01583216895953270000e+001) (9, 1.01517254644987820000e+000) (10, 1.90580504538699420000e+001) (11, 3.04648228559875030000e+001) (12, 1.44916818761999560000e+002) (13, 5.40606401199158880000e+001) (14, -1.26918177298674210000e+000) (15, -1.47195536709386830000e+002) (16, 5.93362242280047520000e+001) (17, 1.96305212645216120000e+001) (18, 1.34780928001291580000e+002) (19, 5.48643382884448130000e+001) (20, 4.24741391110554570000e+001) (21, 1.57172788709773270000e+002) (22, 5.55552401169991010000e+001) (23, 1.90955390353006040000e+001) (24, 1.95743560323541140000e+000) (25, -2.85460533327070150000e+001) (26, 6.54975952205546150000e+001) (27, 1.05404850451493020000e+001) (28, -7.61898087112506240000e+000) (29, 4.06277934977928150000e+001) (30, 1.63873966623839810000e+001) (31, 3.08034598894304530000e+001) (32, 5.38892998071135750000e+000) (33, -7.01009889773829010000e+000) (34, -3.50610653125531350000e+000) (35, 4.37259202063780630000e+001) (36, -1.28723109639541880000e+001) (37, 1.82312211074866470000e+002) (38, -2.20279190015826050000e-001) (39, 5.53549152258199230000e+001) (40, -3.49071680696013060000e-002) (0, -1.66446018186430880000e+000) (1, -4.48771993482581540000e+002) (2, 1.47678097826695100000e+003) (3, 1.43421733055079290000e+001) (4, -4.32612319749200440000e+001) (5, 3.94585816504772500000e+001) (6, 2.22327592177594240000e+000) (7, -6.82884652457967520000e+000) (8, -6.36695765353907530000e+001) (9, 2.74375832893764880000e+000) (10, -5.48570572706445550000e+002) (11, -6.37440695331905730000e-001) (12, -5.70433305232067500000e+000) (13, -1.40777207194184480000e+001) (14, 1.84822951117456640000e+001) (15, 3.90893796042304410000e+000) (16, 2.18261688416914620000e+001) (17, -4.89248383589165390000e+001) (18, -3.03423004323154770000e+000) (19, -1.11700584278174960000e+001) (20, -5.59312576526201080000e+000) (21, -3.01585966131727120000e+001) (22, 2.51811400102087380000e+000) (23, -2.86725974509358280000e-002) (24, -6.38552392949295110000e-003) (25, 7.72497602256184650000e+000) (26, -6.30417588652019580000e-001) (27, 4.26368610198792480000e+001) (28, 1.04858949212015490000e+001) (29, -2.31460227487374630000e+000) (30, 5.71351497391328490000e+001) (31, 7.34683491022128040000e-001) (32, 1.94628732970290120000e-001) (33, 6.79667989361397830000e-001) (34, 1.93355642989568310000e+000) (35, 1.06800378722017970000e+001) (36, 1.81691407549956070000e+000) (37, 1.16594541982596520000e+002) (38, -1.16822240385458500000e+000) (39, 4.32026792666140120000e+000) (40, 6.56195350651290980000e-001) (0, -3.36311041089797750000e+002) (1, 4.81373211043747120000e+002) (2, -1.01507113231908310000e+000) (3, -5.21891580023310410000e+001) (4, -1.21253152586455030000e+002) (5, 6.18048807819578060000e+001) (6, 3.10820017574496430000e+002) (7, 1.96440246801878650000e+001) (8, -1.01877955214954710000e+002) (9, -7.63195314989800340000e-002) (10, -2.32975441003276880000e+001) (11, 2.84083260365865230000e+001) (12, 1.40960649846267730000e+002) (13, -7.07946892889930270000e+000) (14, -6.12770093357183910000e-002) (15, -6.78711692601191030000e+001) (16, -2.15034269797198820000e+002) (17, 6.25950016755322170000e+001) (18, 2.52632067647775930000e+001) (19, 1.59510504852545070000e+002) (20, -1.34298775867832010000e+002) (21, 7.90014760417770390000e+001) (22, 8.87109680456391200000e+001) (23, 1.97696529159168150000e+001) (24, 1.95491277949432690000e+002) (25, 6.29726739556238350000e+000) (26, 2.61172503369612310000e+001) (27, -3.74714343031430590000e+002) (28, -1.05809206345287570000e+001) (29, 1.10151821099974660000e+001) (30, 1.52954441180119950000e+001) (31, 1.04439727440309950000e+002) (32, 1.01611360578151100000e+000) (33, -1.66944206357082660000e+001) (34, 4.30364041153747110000e+002) (35, 2.05895844479062020000e+002) (36, -3.33242960369242100000e+001) (37, 1.34534820374074830000e+002) (38, 6.02799764013768070000e+001) (39, 1.55024583447814310000e+002) (40, 5.41147055086573130000e-001) (0, 9.32266478772048320000e-002) (1, -7.42747002052658670000e+002) (2, 1.50000000000000000000e+003) (3, 1.97061065395559150000e+001) (4, -2.13896322639576300000e+001) (5, 2.58406714636223430000e+001) (6, 9.68226381663221170000e-001) (7, -5.60904608048516270000e+000) (8, -1.00778538677304700000e+002) (9, 3.05695517447154600000e+000) (10, -4.26367481319929880000e+002) (11, -5.43635782606977650000e-001) (12, -5.59450775937546400000e+000) (13, -4.74233775451334250000e+000) (14, 3.93483382957257600000e+001) (15, 1.10847347776987770000e+000) (16, 6.40017586781121840000e+000) (17, -1.15882702244095410000e+001) (18, -3.17039185808456780000e+000) (19, -3.38135795071097300000e+000) (20, -9.63671339235104260000e+000) (21, -1.31808754587337270000e+001) (22, 2.53438596473642660000e+000) (23, -3.40413037262213350000e-002) (24, -4.93639701551576050000e-001) (25, 5.23825768811078070000e+000) (26, -5.82995615450967010000e-001) (27, 4.26373070927196810000e+001) (28, 1.29533772322647350000e+001) (29, -9.38677570192961160000e-001) (30, 6.78572932964574700000e+000) (31, 6.61935610868658260000e-001) (32, 2.87481975006054940000e-001) (33, 2.96625632364383750000e+000) (34, 1.91637478229345960000e+000) (35, 8.77976460733666820000e+000) (36, 2.66673085136858880000e+000) (37, 2.14718197474847090000e+001) (38, -4.32450627722509250000e+001) (39, 4.63831733014927220000e+000) (40, 6.63278574477033760000e-001) (0, -3.81521445163464530000e+001) (1, -2.60669291018735510000e+001) (2, 2.67491611236510210000e+002) (3, 7.72066394174720900000e+001) (4, 5.45523073053759830000e+001) (5, -1.21122969147108250000e+002) (6, -1.72345016834087860000e+002) (7, -9.60613077684757680000e+000) (8, 2.86868379008144600000e+001) (9, -2.13823275902539490000e-001) (10, -1.07857377760955370000e+002) (11, -1.90995327792168300000e+001) (12, -1.05451106174192830000e+002) (13, -7.99888816189884190000e+000) (14, 1.03214892431373230000e+000) (15, 5.63880519311870070000e+001) (16, 3.13210741261477440000e+002) (17, -4.75166533057071220000e+000) (18, -4.36002605033666200000e+001) (19, -3.49734201068708970000e+001) (20, -2.86674121752302290000e+001) (21, -2.03578613182786060000e+002) (22, -2.75744924925304990000e+001) (23, -7.64745499680446720000e+000) (24, -8.19450403892973970000e+000) (25, 1.97845433129306480000e+001) (26, -1.33246726081791110000e+002) (27, -5.01668214509440970000e+000) (28, 1.72926547074021040000e+001) (29, -4.41792380771805920000e+001) (30, 1.00727280145659450000e+001) (31, -4.45321940363689170000e+000) (32, -6.80800222670413290000e+000) (33, 1.61739725527483990000e+001) (34, 3.68552029646030950000e+001) (35, -4.56638431883859570000e+000) (36, -3.36244661089613070000e+001) (37, 1.92320232569075930000e+002) (38, -3.22633887349682880000e+001) (39, -4.41535368757365990000e+001) (40, -4.28987971469016110000e-002) (0, -4.04721304423557740000e+002) (1, -1.51993049003467960000e+001) (2, 1.34178061809879910000e+001) (3, 9.98867985600778780000e+001) (4, -6.16382510376357330000e+001) (5, -9.26075285164208140000e+001) (6, 9.25175712944325280000e+001) (7, -2.37931498397270860000e+000) (8, 3.50491052127252020000e+001) (9, 2.51046984962235150000e-001) (10, -2.12912653263691740000e+001) (11, -1.63847900941069720000e+001) (12, -8.04459398290515960000e+001) (13, 4.29514230846521180000e+000) (14, -5.38667469246468130000e-001) (15, 4.65742323564463020000e+001) (16, 5.63908691094039230000e+001) (17, 6.56346199090657340000e+001) (18, -2.06205896549160280000e+001) (19, -7.73033391895333040000e+001) (20, -6.93045889424020520000e+002) (21, -1.17645813585622780000e+002) (22, -2.69200457719849380000e+001) (23, -1.10123467886398330000e+001) (24, -9.70271694437332850000e+000) (25, 2.11705175730859420000e+001) (26, -7.86010818894116530000e+000) (27, -1.26677995795004550000e+002) (28, 1.43349837040773430000e+001) (29, 4.78347246321915960000e+000) (30, -2.15312634767295260000e-001) (31, -1.48712613497918550000e+001) (32, 8.53045788859178030000e-001) (33, 4.10689599495435260000e+001) (34, 3.30488143380005250000e+001) (35, 2.32556165753386390000e+001) (36, 2.25802034398806020000e+001) (37, -1.52087662062621280000e+001) (38, -3.16127247352265710000e+001) (39, -5.28204356954484880000e+001) (40, -1.89149528103407130000e-001) (0, -8.86244806680734240000e+000) (1, -1.14873612286456050000e+000) (2, 3.15128166639614940000e+000) (3, 9.31475381965830000000e+001) (4, 5.43029197354546650000e+001) (5, -3.94822697217007170000e+001) (6, 3.90727993050173480000e+001) (7, -4.01628405267501610000e+000) (8, 5.25245986350197210000e+001) (9, -1.16669352982099450000e-001) (10, -1.49368399594768920000e+001) (11, -1.86486286204639600000e+001) (12, 2.82874051214157620000e+001) (13, 1.23377478179261950000e+001) (14, 6.87040800366291000000e-001) (15, 7.48797797986574100000e+001) (16, 5.01827302571392980000e+001) (17, -1.71666049834254790000e+001) (18, -1.83889122853928090000e+001) (19, -6.92194161875224980000e+001) (20, -2.31120076046035980000e+001) (21, -5.22788084114564670000e+001) (22, -2.78616840147890380000e+001) (23, -1.70731371668474740000e+001) (24, -8.72108663815069280000e+000) (25, 2.13815993147129570000e+001) (26, -3.74982312285457780000e+000) (27, 3.59521429675445180000e+001) (28, 1.70541243452852810000e+001) (29, -3.18932802587168140000e+001) (30, 7.64737264056587600000e-001) (31, -2.14102554641720350000e+001) (32, 2.56549841930419300000e+000) (33, -9.57529473402980890000e-001) (34, -2.48654924972103440000e+001) (35, -1.43564396283257260000e+001) (36, 4.12048735534885470000e+001) (37, -1.87533355131485880000e+001) (38, -5.14828801118758580000e+001) (39, -5.99321962182339050000e+001) (40, -6.64008903094704160000e-004) (0, 3.18569213158417280000e+001) (1, 5.91614214438602180000e+002) (2, 2.94265413923616550000e-001) (3, -6.90666630367560830000e+001) (4, -5.79915432689836550000e+001) (5, 6.19386169889482550000e+001) (6, 4.60553356077840420000e+002) (7, 5.07143185708676470000e+001) (8, -1.81018782548157080000e+002) (9, 5.83553581282818200000e-001) (10, 1.49417180074746710000e+002) (11, 2.76362428789255540000e+001) (12, 1.21794742662014930000e+002) (13, 1.95572665148058600000e+001) (14, 4.89493585981047750000e-001) (15, -3.58941438346308250000e+001) (16, -1.97284892092044770000e+002) (17, 1.93737690440525800000e+002) (18, 2.54560865232079860000e+001) (19, 1.93249957927323380000e+002) (20, 4.47389677867813590000e+001) (21, 6.50583949785599880000e+001) (22, 5.21519203711322210000e+001) (23, 2.10568229105325880000e+001) (24, 5.50336670462143050000e+001) (25, 4.75969867944770190000e+000) (26, 2.67710574550954590000e+001) (27, 4.34434559449551260000e+001) (28, -1.64340244636971590000e+000) (29, 2.04523728534676760000e+001) (30, -1.71812294176464890000e+002) (31, 4.34369799633596540000e+001) (32, 1.78623757920751780000e+000) (33, -1.02105047174083870000e+001) (34, 6.91622944433622950000e+000) (35, 1.12191228489039770000e+002) (36, -2.30383932149982410000e+001) (37, 8.30913106776620650000e+001) (38, 4.88575176913307700000e+001) (39, 9.86697597768219910000e+001) (40, 1.12893004705370510000e+000) (0, -1.62346098424542730000e+002) (1, -2.36021888243890170000e+001) (2, 2.26086677982002500000e+000) (3, 1.05520211290168050000e+002) (4, -9.65071805009122130000e+001) (5, -9.42595173880436760000e+001) (6, 2.27340695812578910000e+001) (7, -1.11530883206023360000e-001) (8, 1.67538623770059910000e+001) (9, 2.21168867851157410000e+000) (10, -1.17849455024208100000e+002) (11, -1.79086316163216460000e+001) (12, -7.86518701940740500000e+001) (13, 9.66815387820276050000e+000) (14, -1.28310736553492990000e-002) (15, 5.56292855410312160000e+001) (16, 1.07166735399362200000e+002) (17, -5.09754167705096430000e+000) (18, -3.78958032582373360000e+001) (19, -3.88417944500836680000e+001) (20, -5.21197887261810710000e+001) (21, -1.78007978794794520000e+002) (22, -4.40771943469318970000e+001) (23, -6.23178855005798660000e+000) (24, -8.94148334630350130000e+000) (25, 1.83854855336084490000e+001) (26, 1.07302331993802110000e+002) (27, -2.85825140734622150000e+002) (28, -5.08339702103576710000e-001) (29, -1.04919392190051970000e+002) (30, -1.79659722291444200000e+000) (31, -5.89088026456698090000e+000) (32, 5.26496098744275010000e+000) (33, 4.50096093749279120000e+001) (34, 3.61645854212821690000e+001) (35, 7.98716613824065380000e+000) (36, -8.95963916483993900000e+001) (37, -5.84924135269657200000e+001) (38, -7.54168238904473750000e+000) (39, -3.48557056195403730000e+001) (40, 7.03588737105097920000e-002) (0, -5.41939033917549830000e+000) (1, 4.83580627754678180000e+002) (2, -5.13529310794249290000e-002) (3, -3.10584216616215580000e+001) (4, -8.85273647306778740000e+001) (5, 5.42918651771240730000e+001) (6, 6.97776843963616330000e+002) (7, 3.87272869013177190000e+001) (8, -9.72335455291419210000e+001) (9, 2.72497704729881770000e-001) (10, 5.10383916796196930000e+001) (11, 2.80498123796398810000e+001) (12, 1.36581311107890570000e+002) (13, -2.21092067081579910000e+000) (14, -2.99360116842784410000e+000) (15, -5.45509705772091280000e+001) (16, -2.05409279170368900000e+002) (17, 3.79156135687304430000e+001) (18, 2.06779799467625550000e+001) (19, 1.65445320819842150000e+002) (20, 3.91234949108554280000e+001) (21, 7.10353148879046610000e+001) (22, 3.72354319625952850000e+001) (23, 2.21019396712416700000e+001) (24, -6.63236192572766330000e+001) (25, -9.19641316967137800000e-001) (26, 4.73488945186891070000e+001) (27, -2.68841279420388940000e+001) (28, -8.39477902691225530000e+000) (29, 5.52552753562583820000e+000) (30, -4.00843752759538820000e+001) (31, -1.09846705548632060000e+001) (32, 2.44613472573411440000e+000) (33, 6.46960547781745990000e+000) (34, 3.96683316134868160000e+002) (35, 2.08193152871978440000e+002) (36, -1.72767981409490330000e+001) (37, 7.02515159849691880000e+001) (38, 5.34568537809738660000e+001) (39, 5.78806467683285530000e+001) (40, 4.72651504536436450000e-001) (0, -3.96350391852382470000e+002) (1, -1.52129218422160550000e+001) (2, 1.33052756589395180000e+001) (3, 9.91452506628251770000e+001) (4, -6.17485720825576080000e+001) (5, -8.46008357888517390000e+001) (6, 8.54224626023116260000e+001) (7, -2.52714213241020860000e+000) (8, 3.75035817888158150000e+001) (9, -2.97101570028184820000e-001) (10, -2.26694435636728220000e+001) (11, -1.59431265972921710000e+001) (12, -8.04516005610819180000e+001) (13, 1.04122909181816630000e+001) (14, -4.11885234488329530000e-001) (15, 4.65610365437441230000e+001) (16, 5.63120849341867710000e+001) (17, 6.19955071215751590000e+001) (18, -2.07165674381191530000e+001) (19, -7.72508123318293800000e+001) (20, -5.48614264557417870000e+002) (21, -1.17594220572515000000e+002) (22, -2.25850026433218960000e+001) (23, -1.11637626673227020000e+001) (24, -9.58692535295592840000e+000) (25, 2.11406164485489580000e+001) (26, -6.76634885106361940000e+000) (27, -3.86762558330142880000e+001) (28, 1.50928525945006110000e+001) (29, 9.83757727863794960000e+000) (30, 1.05681496721324330000e+001) (31, -1.53273228260215570000e+001) (32, 9.12642559434126750000e-001) (33, 4.11672326605821080000e+001) (34, 3.58517290993718590000e+001) (35, 8.60035898176085570000e+000) (36, 2.29391958930507690000e+001) (37, -1.48465850956552700000e+001) (38, -3.15423966756897340000e+001) (39, -5.38587725276894530000e+001) (40, -1.91942766311374690000e-001) (0, -1.98156324586638790000e+002) (1, -1.69517138587567260000e+001) (2, 1.29333836174033490000e+001) (3, 9.96688517221130470000e+001) (4, 9.96390686799560400000e+000) (5, -9.25713102457613670000e+001) (6, 8.53392960924449110000e+001) (7, -2.47024515900890050000e+000) (8, 3.75375671777620640000e+001) (9, -4.98715857671464090000e-001) (10, -2.05351790319657040000e+001) (11, -1.59301019932408700000e+001) (12, -8.08072965939249740000e+001) (13, 1.01542694260568160000e+001) (14, -3.97599842314140530000e-001) (15, 4.44935388934347170000e+001) (16, 5.13724279878108660000e+001) (17, 7.68274089281904510000e+001) (18, -2.27431916196969620000e+001) (19, -7.74245262795935640000e+001) (20, -6.93080673357332220000e+002) (21, -1.17666388542755120000e+002) (22, -2.83821384050770540000e+001) (23, -1.21338710757921860000e+001) (24, -9.41488111593511330000e+000) (25, 2.11997534129296920000e+001) (26, -1.18397717570508620000e+001) (27, -1.36561923452964810000e+002) (28, 1.47655019247850080000e+001) (29, -3.18557551326904470000e+001) (30, -4.05898319769088540000e+000) (31, -1.57497182786990810000e+001) (32, 1.52822549028282450000e+000) (33, 4.10551171731257940000e+001) (34, 3.37267740771291640000e+001) (35, 1.37634091713494600000e+001) (36, 2.24732332265269680000e+001) (37, -1.48974701024406620000e+001) (38, -3.06132113725349200000e+001) (39, -5.41085103294940170000e+001) (40, -1.93957853178830300000e-001) (0, 3.44943532048634720000e+001) (1, 4.32192124539179900000e+001) (2, -1.84581714197452200000e+000) (3, -4.89844602395033280000e+001) (4, -5.05040313197335070000e+001) (5, 6.33874476547884240000e+001) (6, 2.37530166060932830000e+001) (7, 2.08849762787264130000e+001) (8, -2.48677995102707780000e+001) (9, 2.75507469118295270000e-001) (10, 4.19345119602223800000e+001) (11, 3.31792471495983250000e+001) (12, 2.00226284675918010000e+002) (13, 1.42946633697327970000e+001) (14, -1.58469033707959030000e-001) (15, -4.75241942160450460000e+001) (16, -9.33855415732720750000e+000) (17, 1.98916896008128760000e+002) (18, 2.73577876562913110000e+001) (19, 7.67705368946415380000e+001) (20, 2.42913990432283950000e+001) (21, 1.13271293632923940000e+002) (22, 5.19250861506146610000e+001) (23, 1.88060620106505710000e+001) (24, 1.77591602704686050000e+001) (25, -1.74687932916483430000e+000) (26, 2.47668872744773160000e+001) (27, -9.16560556964368620000e+000) (28, -2.64800008076723710000e+002) (29, 5.39440689916219040000e+001) (30, 2.28115723159372270000e+001) (31, 2.22006055018949620000e+001) (32, -1.25619853787200560000e+001) (33, 4.79079451038008930000e+000) (34, 1.84016538853302000000e+002) (35, 7.80286106666315500000e+001) (36, -2.53491016171477740000e+001) (37, 3.41077702583563750000e+001) (38, 5.23913341052862830000e+001) (39, 9.92952672528022190000e+001) (40, 3.71266843793089880000e-001) (0, -1.78157045787872160000e+001) (1, -2.34747563612921300000e+001) (2, 1.27270522834514690000e+002) (3, 1.08483372480653170000e+002) (4, 2.15577159839664820000e+001) (5, -4.13996995135889140000e+001) (6, 3.25364424556106400000e+001) (7, -6.87150164763672940000e+000) (8, 3.20596037475321300000e+001) (9, 1.78436354292573000000e-002) (10, -2.31481682528578500000e+001) (11, -1.93948326714212380000e+001) (12, -6.10448390773686210000e+001) (13, -7.74784531369406700000e+000) (14, 8.07304714594245020000e-001) (15, 7.28306843200431900000e+001) (16, 2.87886305268513390000e+001) (17, -9.00896200095029090000e+000) (18, -2.46316427220306050000e+001) (19, -3.50677161505074510000e+001) (20, -3.20776809947110880000e+001) (21, -9.39251045029688920000e+001) (22, -2.30560570779108290000e+001) (23, -7.58122820813400460000e+000) (24, -7.82711916220552960000e+000) (25, 3.80041109114152040000e+001) (26, -1.67834667685461550000e+001) (27, 2.41772277018934890000e+001) (28, 3.94015650167667250000e+001) (29, -1.84289846952158850000e+001) (30, 5.37682525715511160000e+001) (31, -6.19501735957583040000e+000) (32, -7.55584576190843290000e-001) (33, 1.67585154585844940000e+001) (34, 2.31798083522619900000e+001) (35, -1.96286152826901810000e+001) (36, 3.00788540293292210000e+001) (37, -1.83758975128281320000e+001) (38, -3.19191174365713020000e+001) (39, -5.80528323805032400000e+001) (40, 2.37543765199232270000e-002) (0, 2.05128015226781630000e+001) (1, 4.49923105739587830000e+001) (2, -2.57385217092933340000e+000) (3, -4.90341489587163370000e+001) (4, -3.49471082794072030000e+001) (5, 6.56650413880596200000e+001) (6, 3.08130433410800890000e+001) (7, 2.08225299732956940000e+001) (8, -2.47933356600009560000e+001) (9, 1.89100164120237560000e-001) (10, 2.99105309811996350000e+001) (11, 3.28779881816652090000e+001) (12, 1.60489551280865270000e+002) (13, 3.01165254519325460000e+001) (14, -1.61497128257460460000e-001) (15, -4.64878036459089970000e+001) (16, 2.10991619448045450000e+000) (17, 7.03573371075292900000e+001) (18, 2.74002455775350990000e+001) (19, 7.68115774362293280000e+001) (20, 2.95953602404657230000e+001) (21, 1.20781002396218180000e+002) (22, 5.21169297318918860000e+001) (23, 3.78806770017191780000e+001) (24, 1.97752439205580720000e+001) (25, -1.68046087511381700000e+000) (26, 2.89892175854122160000e+001) (27, -9.28451426924557490000e+000) (28, -3.92728198714719380000e+001) (29, 5.25283437678640230000e+001) (30, 3.28592893910568190000e+001) (31, 2.11281748242858600000e+001) (32, -1.25335552074091550000e+001) (33, 1.11277465734984920000e+001) (34, 2.23867829570010090000e+002) (35, 6.38292883887896560000e+001) (36, -2.52948979709211380000e+001) (37, 3.72074816308239700000e+001) (38, 5.14808887819204060000e+001) (39, 9.84755937537137810000e+001) (40, 3.47732101170466550000e-001) (0, -3.60436289466543490000e+002) (1, 2.49158697445034590000e+002) (2, -3.76060214805637120000e-001) (3, -5.48619788789574160000e+001) (4, -6.25356469438949530000e+001) (5, 5.66190057862289890000e+001) (6, 2.32633834089056340000e+002) (7, 4.97415963399053640000e+001) (8, -1.86114550191481700000e+002) (9, 1.88665536258984910000e-001) (10, 2.10362921747100450000e+000) (11, 2.76367794995217080000e+001) (12, 1.13957035923693160000e+002) (13, 5.14544714454723540000e+000) (14, -9.61900643158407510000e-001) (15, -5.29731293647375740000e+001) (16, -2.33555509948396750000e+002) (17, 4.61537639297891860000e+001) (18, 9.45270674991891190000e+000) (19, 1.53690227138654340000e+002) (20, 2.64642522618221710000e+001) (21, 6.89653471820815300000e+001) (22, 6.87709026852939900000e+001) (23, 2.33574700239857550000e+001) (24, 1.74004516984274230000e+002) (25, -1.00139499271594320000e+001) (26, 2.56252146764407560000e+001) (27, -1.10785194856516410000e+002) (28, -2.65027321744142380000e+001) (29, 5.02755677504470540000e+000) (30, -9.69173170232003400000e+000) (31, 1.33103089172105650000e+002) (32, 9.02492560854636690000e-001) (33, -1.38524246767358510000e+001) (34, 8.30802005178935360000e+002) (35, 1.83443193141701980000e+002) (36, -2.76869703911144320000e+001) (37, 1.15930911954899880000e+002) (38, 7.40712998160178980000e+001) (39, -1.01169365086866390000e+002) (40, 5.09167080949543550000e-001) (0, 1.94307569441311980000e+002) (1, 6.99945635750593170000e+001) (2, 1.02130055597804810000e+001) (3, 3.11015202534110950000e+001) (4, 9.39493141209805460000e+001) (5, 2.01356199183468560000e+002) (6, 7.99763372377746860000e+001) (7, 2.88715249782110600000e+001) (8, -3.66865873889113820000e+000) (9, 5.04123456529814540000e+000) (10, 3.48091875675443420000e+001) (11, 3.07415939754675980000e+001) (12, 1.23055683115208440000e+002) (13, 8.38288640538572450000e+001) (14, 8.44484957235895230000e-001) (15, -2.97189840445375090000e+000) (16, 2.60305846697471640000e+001) (17, 1.39312210489180490000e+001) (18, 1.05994034323363520000e+002) (19, 6.25877166267487580000e+001) (20, 9.41664485042634140000e+001) (21, 3.10226991655247790000e+002) (22, 7.15865397305479410000e+001) (23, 1.48521304875963280000e+001) (24, 6.79845563778768190000e+000) (25, 3.53579547897630910000e+000) (26, 2.32855182977606920000e+002) (27, 1.00048688203144180000e+002) (28, 2.89172119913084200000e+001) (29, 4.17719874445322150000e+001) (30, -1.10545149856265380000e+001) (31, 2.44927296256344280000e+001) (32, 6.00862359076048770000e+000) (33, -2.08119261349905680000e+001) (34, -1.74955025600036970000e+001) (35, 1.65059240236630100000e+001) (36, 8.42954885692204950000e+001) (37, 8.26546568041958100000e+001) (38, 3.91354657661886520000e+001) (39, 6.03736014517602940000e+001) (40, -5.59522689692106760000e-002) (0, -1.30135486534464090000e+002) (1, -1.65770045315289210000e+001) (2, 1.25613371349732240000e+001) (3, 9.93720369116380620000e+001) (4, 2.30434722927137980000e+001) (5, -8.04485492379930780000e+001) (6, 4.65853843622506290000e+001) (7, -2.33652322996536910000e+000) (8, 3.74137573633089390000e+001) (9, -2.01940157427004550000e-001) (10, -3.11824896653284040000e+001) (11, -1.67508551513934800000e+001) (12, -8.05628432353730520000e+001) (13, 1.03869613473519670000e+001) (14, -3.27191969121196640000e-001) (15, 4.46013208773467080000e+001) (16, 5.62792724319515970000e+001) (17, 6.51624136182484650000e+001) (18, -2.28923798550990620000e+001) (19, -7.74194420480977070000e+001) (20, -8.87811869740580730000e+001) (21, -7.44273948078857900000e+001) (22, -2.49715480719537840000e+001) (23, -9.25913689195343710000e+000) (24, -1.11103869032658820000e+001) (25, 2.10810766536270830000e+001) (26, -1.35984080622155370000e+001) (27, -4.36288293232049470000e+001) (28, 1.51417958704106010000e+001) (29, -2.73839655072158660000e+001) (30, -4.50641949744072350000e+000) (31, -1.85804658640578530000e+001) (32, 1.43070961667185070000e+000) (33, 3.52530326279625470000e+001) (34, 3.37126176376672360000e+001) (35, 3.00966154236336650000e+001) (36, 1.03369850701539310000e+001) (37, -1.48528350896948050000e+001) (38, -3.15281122946332890000e+001) (39, -4.66419023604405470000e+001) (40, -1.09962020840379260000e-001) (0, -1.14452475048198420000e+002) (1, -2.68896113209022010000e+001) (2, 1.67370655444730550000e+001) (3, 1.27569863666625010000e+002) (4, -1.10445207096488190000e+002) (5, -5.14832031192944370000e+001) (6, 3.79938224623459180000e+001) (7, -2.82238896741939450000e+000) (8, 1.74706760301345870000e+001) (9, 9.77878545037650810000e-001) (10, -2.55060671822570750000e+002) (11, -1.71345092462771330000e+001) (12, -7.44455864040308480000e+001) (13, -4.40590666051875250000e+002) (14, 3.96633400522747430000e-001) (15, 5.82072364972351220000e+001) (16, 5.81992452452093260000e+001) (17, -6.68975458253326760000e+000) (18, -1.36765353117600110000e+001) (19, -5.07102094419507810000e+001) (20, -2.45853393963305710000e+001) (21, -8.48021747641195560000e+001) (22, -2.62603934419565340000e+001) (23, -6.74167101698400550000e+000) (24, -1.11498698073343880000e+001) (25, 1.86606669786549410000e+001) (26, -8.72492552052267280000e-001) (27, -1.55742701466145750000e+002) (28, 1.50462475913553090000e+001) (29, -4.97621472821497970000e+001) (30, 2.81605549130874830000e+000) (31, -1.06981422169584060000e+000) (32, 9.64428687850125920000e-001) (33, 4.82045335972693180000e+001) (34, 3.00515205219202310000e+001) (35, 1.42803048447515760000e+001) (36, -3.63171850408603660000e+001) (37, -4.39929840325707460000e+001) (38, -1.89050197471865470000e+001) (39, -3.81020907677010140000e+001) (40, 3.41086358997874930000e-001) (0, 6.40864802813082410000e+001) (1, 1.16088816750379290000e+002) (2, -9.97328331056377860000e-001) (3, -5.88589189857900760000e+001) (4, -3.42599702857826640000e+001) (5, 2.06425509951011150000e+002) (6, 4.84020933269565180000e+001) (7, 6.90173151757027180000e+000) (8, -8.71713308977360770000e+000) (9, 4.02449080978505070000e-001) (10, 1.38546972091084780000e+001) (11, 3.60970516101316220000e+001) (12, 1.22148396531782520000e+002) (13, 1.12807155107370930000e+002) (14, 2.49931958199372360000e-001) (15, -3.18723475867529590000e+001) (16, 7.08394173576400110000e-001) (17, 3.41440305810503300000e+001) (18, 1.90900910211676410000e+001) (19, 6.10914192745473630000e+001) (20, 3.81532894555646040000e+001) (21, 8.92505560760116770000e+001) (22, 6.55110905934745630000e+001) (23, 1.43103298894480840000e+001) (24, 1.17667776239592090000e+001) (25, -8.97591319874347810000e-001) (26, 1.77592453697551780000e+002) (27, 2.63771228878987360000e+001) (28, -7.98007965490079310000e+000) (29, 4.06817944378223120000e+001) (30, 2.46019035675821400000e+000) (31, 6.29503962131538660000e+001) (32, 1.68934603242694020000e+001) (33, -7.07811716919029800000e+000) (34, -1.78045775055661760000e+001) (35, 2.23819809167920600000e+001) (36, -2.09564376071573900000e+001) (37, 1.24064409504213020000e+002) (38, 4.44070942716121730000e+001) (39, 1.13145296324031950000e+002) (40, -1.94159254043776500000e-002) (0, 1.73179183279170590000e+001) (1, -8.14792956434624220000e+002) (2, 1.50000000000000000000e+003) (3, 4.08605953416430740000e+002) (4, -1.11867862186656720000e+002) (5, 9.20725964259329430000e+002) (6, 1.17740549927770190000e+001) (7, -2.11196280535808720000e+001) (8, -1.50684094932938170000e+002) (9, 4.16745316717220290000e+001) (10, -9.04828629339064950000e+002) (11, -1.71479584181950930000e+000) (12, -1.55553727970785460000e+001) (13, -4.05596471446951550000e+001) (14, 3.86841729157499830000e+001) (15, 9.12440730623454680000e+000) (16, 2.10636817971986120000e+001) (17, -5.41748233581502770000e+001) (18, -9.86001266982692750000e-001) (19, -3.15750962246983740000e+001) (20, -5.23245598493529500000e+000) (21, -3.90202865418351850000e+002) (22, 1.19038550583359640000e+001) (23, -3.62039438882282920000e+000) (24, 2.23414735084781730000e-002) (25, 3.42990967011092210000e+001) (26, 4.20390408829791450000e-001) (27, 7.09909604541752230000e+001) (28, 5.92810853263658030000e+002) (29, 4.04355749511458560000e+000) (30, 8.03852815236342800000e+000) (31, 4.39187539367898160000e+000) (32, 2.07537686994713870000e+000) (33, -1.39376501934279400000e+000) (34, 2.36729185966381770000e+000) (35, 2.17946018616876710000e+001) (36, 9.29634912670109160000e+000) (37, 1.53809942293801780000e+002) (38, -1.04845823738922930000e+002) (39, 2.17024965871369280000e+001) (40, 1.31077642076028830000e+000) (0, -5.65471150142105260000e+001) (1, -7.84490199876054460000e+000) (2, 1.46762713521791190000e+001) (3, 5.49713263273451960000e+001) (4, -2.63982087859675010000e+001) (5, -3.08336920535906960000e+001) (6, 1.68387447517175350000e+001) (7, -1.18565746104981100000e+000) (8, 1.95226356287103790000e+001) (9, -2.01128576634659020000e+000) (10, -4.05431488605117710000e+001) (11, -5.13197411349601220000e+000) (12, -3.03799606349411990000e+001) (13, -1.79335046316190370000e+001) (14, -2.44603318156994430000e-001) (15, 2.19937959528042910000e+001) (16, 5.57219506791060720000e+001) (17, -1.47780686601564760000e+001) (18, -5.14675010006804530000e+000) (19, -2.45288437117947390000e+001) (20, -2.22119109937873420000e+001) (21, -5.37867711664362100000e+001) (22, -1.08386528306827580000e+001) (23, -2.60141100704719100000e+000) (24, -3.89788251398771730000e+000) (25, 7.35882386354116400000e+000) (26, -3.54413673163245590000e+000) (27, -1.68296419844063310000e+002) (28, 8.94193114222773920000e+000) (29, -2.50240185365183830000e+001) (30, 3.04527459210436420000e+000) (31, -8.28030707694777310000e+000) (32, 2.69824155775412300000e-001) (33, 1.48130755372552960000e+001) (34, 2.04550597977406560000e+001) (35, 5.12304077730441950000e-001) (36, -1.49989808405676510000e+001) (37, -1.81312358025958710000e+001) (38, -8.22142281461333190000e+000) (39, -1.30730288177856870000e+001) (40, 6.54856471501516630000e-002) (0, 7.89101134215472940000e+001) (1, 1.11992747046812310000e+002) (2, -7.32371865951664520000e+000) (3, 4.12829378522036450000e+001) (4, 6.00021126178498180000e+001) (5, 1.00019414847264600000e+002) (6, 5.93582386489426880000e+001) (7, 5.54852972812161340000e+001) (8, -8.93321688010937900000e+000) (9, 1.41808350305272150000e+001) (10, 2.21698198014128140000e+001) (11, 3.05896968427892620000e+001) (12, 1.23272974064097480000e+002) (13, 6.95781254126722220000e+001) (14, 1.13763928828698400000e-001) (15, -2.78243692766363040000e+001) (16, 3.01053196147977720000e+001) (17, 1.14689991598733310000e+001) (18, 6.98421332801484310000e+001) (19, 6.20650820954790630000e+001) (20, 5.14338351628847620000e+001) (21, 2.45533506663362370000e+002) (22, 7.06713475670722740000e+001) (23, 1.61704980961327930000e+001) (24, 1.88928515385576040000e+001) (25, -3.54138877940907200000e-001) (26, 1.27893816214763120000e+002) (27, 6.41672979980561990000e+001) (28, 1.67441117522896690000e+001) (29, 4.19824597544558460000e+001) (30, 4.36741996895440910000e+000) (31, 3.16538676519543540000e+001) (32, 5.40525647914919280000e+000) (33, -2.13604908416059620000e+001) (34, -7.00929814673901320000e+000) (35, 1.11144193070098170000e+001) (36, 1.70039122413830230000e+002) (37, 7.26252358353166160000e+001) (38, 2.85579925985622650000e+001) (39, 6.64603363438185110000e+001) (40, -5.30671284272398390000e-002) (0, -2.39889838269184340000e+002) (1, -4.16211873338037180000e+001) (2, 6.23409025452388120000e+000) (3, 1.23053161190065890000e+002) (4, -1.10307182200104900000e+002) (5, -5.60225550184121130000e+001) (6, 3.85270455037774580000e+001) (7, -3.41588468385024190000e+000) (8, 1.88890854878188930000e+001) (9, 9.85361453703784700000e-001) (10, -2.41388850936965240000e+002) (11, -1.36424234626481620000e+001) (12, -7.44694910168616250000e+001) (13, -1.62185814420794260000e+002) (14, 4.04000340901890190000e-001) (15, 5.59493648521176330000e+001) (16, 6.60377162177904610000e+001) (17, -6.02274960730047490000e+000) (18, -1.74147052390987800000e+001) (19, -6.58886880669984830000e+001) (20, -5.58038855450426250000e+001) (21, -9.11770129460108050000e+001) (22, -2.12263783216208850000e+001) (23, -7.85518970269768690000e+000) (24, -1.05519482992308600000e+001) (25, 1.99602349943765740000e+001) (26, 5.87866551180211250000e-001) (27, -5.23832592880408810000e+002) (28, 1.30562623848556180000e+001) (29, -6.68838461837301280000e+001) (30, 3.02961166469282390000e+000) (31, -1.11642651104941600000e+001) (32, -1.03347041689229460000e+000) (33, 2.84642676933244090000e+001) (34, 4.42055877235769610000e+001) (35, 3.84844793281019950000e+000) (36, -3.63630712743093480000e+001) (37, -4.35930503475625170000e+001) (38, -2.07753517404942550000e+001) (39, -2.77576916500387760000e+000) (40, 2.97956382155740160000e-001) (0, 1.31147750270429740000e+001) (1, -1.10538254679679770000e+003) (2, 1.50000000000000000000e+003) (3, 5.53454850389910120000e+002) (4, -3.78288113098745100000e+002) (5, 9.78564086554332110000e+002) (6, 1.22243391679534760000e+001) (7, -2.21976383603387110000e+001) (8, -1.50729315881693910000e+002) (9, 3.81587208222586270000e+000) (10, -9.01755834266460740000e+002) (11, -1.61430238708462740000e+000) (12, -1.08188522282414950000e+001) (13, -1.73472082514470290000e+002) (14, 8.08947543877494870000e+001) (15, 2.91102724780590850000e+000) (16, 9.97670621276232770000e+001) (17, -1.00048197228709270000e+002) (18, -6.00505152487581030000e+000) (19, -5.69181867735698430000e+000) (20, -8.53786235336963980000e+000) (21, -2.12484982944556750000e+002) (22, 7.16609768012462830000e+000) (23, -1.53389613423353330000e+000) (24, 1.48788119770206280000e-001) (25, 5.79999711463319160000e+001) (26, 1.66655574728150260000e-001) (27, 6.11594560763340740000e+001) (28, 5.53852629193243390000e+002) (29, -1.29516128565066620000e+000) (30, 4.30705683467869350000e+000) (31, 1.24443907963431730000e+001) (32, 1.67611691795864570000e+000) (33, 1.94709957842162270000e+000) (34, 3.18409635847482560000e+000) (35, 2.30971830750934220000e+001) (36, 1.40166401788090730000e+001) (37, 1.55937004921722060000e+002) (38, -1.04131471885687590000e+002) (39, 5.36118737137532260000e+000) (40, 1.30879277818216330000e+000) (0, -2.56211350027709390000e+002) (1, 7.33552471165822000000e+002) (2, 3.68149367232885490000e-001) (3, -3.07739307114298590000e+001) (4, -6.72700638102236470000e+001) (5, 6.47280275094044130000e+001) (6, 5.85518674168536460000e+001) (7, 1.26109471872791450000e+001) (8, -9.57112850074893660000e+001) (9, 2.98232649284249920000e-001) (10, 8.79868833382902980000e+001) (11, 2.72257368185710110000e+001) (12, 1.20982327112791750000e+002) (13, 2.34761302846233800000e+001) (14, 3.86590417845019460000e-001) (15, -4.23177184143841460000e+001) (16, -3.25212636068113170000e+002) (17, 1.10907376336271580000e+002) (18, 2.35893516046513230000e+001) (19, 1.69049053540951380000e+002) (20, 5.53288205776007370000e+001) (21, 6.74595315184198940000e+001) (22, 9.87762828403766240000e+001) (23, 5.73706377722599260000e+001) (24, 5.22199751928336300000e+001) (25, 8.11031478756000550000e+000) (26, 4.86494980786625960000e+001) (27, -1.10355249993357930000e+002) (28, 6.54946259313920540000e+000) (29, 2.50237429235855020000e+001) (30, -8.11790845030975330000e+002) (31, 8.25392731182309090000e+001) (32, 1.10938150119929420000e+000) (33, -8.08708152090755480000e+000) (34, 1.03261165157662180000e+002) (35, 3.62109842240457510000e+002) (36, -5.31627045677124170000e+001) (37, 1.90385429870239700000e+002) (38, 5.53903441820960010000e+001) (39, 1.30936685617248290000e+002) (40, 1.10112976626936220000e+000) (0, -3.60503269441051770000e+002) (1, 2.57397760182610970000e+002) (2, -1.08332740241070360000e+000) (3, -5.51750955374086800000e+001) (4, -8.43030956564358290000e+001) (5, 6.91967246303882180000e+001) (6, 5.20098913348270460000e+002) (7, 7.25024580261925990000e+001) (8, -1.74476144716646220000e+002) (9, 7.82615321912406150000e-002) (10, 5.77173248771332010000e+001) (11, 2.75877013556576960000e+001) (12, 1.31798821030208590000e+002) (13, -3.75381423030616280000e+000) (14, 3.20598332236189660000e-001) (15, -5.08217354142098050000e+001) (16, -2.12851502529843910000e+002) (17, 3.65260167961154760000e+002) (18, 1.17068077700854170000e+001) (19, 1.62675706730304480000e+002) (20, 2.44972559899558960000e+001) (21, 7.03124508659412580000e+001) (22, 5.63242253981373150000e+001) (23, 3.86126927376279880000e+001) (24, 2.93603910979541460000e+001) (25, 1.32653889963779450000e+001) (26, 1.67765354441009970000e+001) (27, -4.82602233711279780000e+001) (28, -1.62125707878814470000e+001) (29, 3.60134121101429820000e+000) (30, -1.13135618764811030000e+001) (31, 2.57131050775604490000e+001) (32, 1.45288188402334970000e+000) (33, -4.86766278334585150000e+000) (34, 4.77579614071241110000e+002) (35, 4.81450902565444890000e+002) (36, -2.75231909156401610000e+001) (37, 1.48534127124283880000e+002) (38, 6.40594996237374940000e+001) (39, -9.43586932110037680000e+001) (40, 4.74344107874736300000e-001) (0, -3.55073112632192930000e+002) (1, -1.66512843241357520000e+001) (2, 1.92173955410753020000e+001) (3, 9.94291850969020320000e+001) (4, 2.31446441736742620000e+001) (5, -9.19633306815943710000e+001) (6, 4.42389849213453350000e+001) (7, -2.40307596583048520000e+000) (8, 8.94487258660268910000e+001) (9, -2.17040684127041810000e-001) (10, -5.52206523522868690000e+001) (11, -1.67769904023194980000e+001) (12, -7.24873919721039780000e+001) (13, 6.39265326124058660000e+000) (14, 1.91842376106010140000e-002) (15, 4.63496094631237270000e+001) (16, 5.77139599814972830000e+001) (17, 6.56087104852376090000e+001) (18, 6.07740094510633210000e+001) (19, -7.74392601678024310000e+001) (20, -1.31840676739065150000e+002) (21, -7.44137900626169680000e+001) (22, -1.78211149884369680000e+001) (23, -8.76015075409627460000e+000) (24, -1.36103357037780790000e+001) (25, 2.11975805628573080000e+001) (26, -1.20916153731368840000e+001) (27, -4.04293410061591130000e+001) (28, 1.38018985226522040000e+001) (29, -3.52446448055167990000e+001) (30, -4.02149061064029210000e+000) (31, -1.96422362030737890000e+001) (32, 2.78419835747042790000e+000) (33, 4.60411934192722610000e+001) (34, 3.37744669497130300000e+001) (35, 1.51254203079651490000e+001) (36, 1.05239792939954930000e+001) (37, -1.40081236578945100000e+001) (38, -3.06125372898868310000e+001) (39, -4.79148926356122190000e+001) (40, -1.18650507099095540000e-001) (0, -6.17529468494671500000e-001) (1, -9.33507152086461590000e+002) (2, 1.50000000000000000000e+003) (3, 1.99556488861552420000e+001) (4, -3.07021085675251440000e+001) (5, 8.78826908788784070000e+001) (6, 1.32833634079392430000e+001) (7, -4.17121209029641540000e+000) (8, -2.56609254993654870000e+002) (9, -7.39575445083414660000e-002) (10, -1.73325212037393240000e+002) (11, -5.70910192365631120000e-001) (12, -5.47595010132609610000e+000) (13, -4.46260203544585730000e+000) (14, 7.37000415115826970000e+001) (15, 4.87526245266730560000e+000) (16, 3.81082408700032930000e+001) (17, -4.18918306119440230000e+001) (18, -2.04636886410204340000e+000) (19, 2.42368957712464850000e+000) (20, -3.72445443857895910000e+000) (21, -4.07791253908562650000e+001) (22, 2.99427660749098430000e+000) (23, -1.33100216694537620000e-001) (24, -2.96650069745323540000e-001) (25, 1.22486318654729600000e+001) (26, -5.41030585799430970000e-001) (27, 9.52654994851999820000e+001) (28, 7.90678566100501180000e+000) (29, -8.56579432408489990000e-001) (30, 3.91382418917234580000e-001) (31, 5.33387974054612270000e+000) (32, 2.19110816573570980000e-001) (33, 8.77090817587222630000e-001) (34, 2.13760567667295160000e+000) (35, 1.03176799138369580000e+001) (36, 3.13549826683175330000e+000) (37, 3.40650029833447410000e+001) (38, -4.43320939366034640000e+001) (39, 5.93309703515407880000e+000) (40, 6.65782961372583860000e-001) (0, 4.43933037089679980000e+001) (1, -4.12922435442730490000e+001) (2, 1.85070551579543160000e+001) (3, 1.10871697297848340000e+002) (4, 5.53725420608438340000e+001) (5, -4.19377812028079400000e+001) (6, -2.28065041392035250000e+002) (7, -6.20351423922284620000e+000) (8, 2.70076854035310030000e+001) (9, 4.99698016808779510000e-001) (10, -2.03304115490442250000e+001) (11, -2.00969683699735030000e+001) (12, -8.07668556920663580000e+001) (13, 3.82685948218354920000e+001) (14, 6.04827604465658530000e-001) (15, -2.08976919529859640000e+000) (16, 1.03821226425358970000e+001) (17, -6.10392956900026820000e+000) (18, 5.85915216404680880000e+001) (19, -4.64736196476024550000e+001) (20, -3.13504707954109700000e+001) (21, -1.17851391657968430000e+002) (22, -3.57226136441271790000e+001) (23, -7.36394436001582870000e+000) (24, -7.78474336887343730000e+000) (25, 3.74598214957254500000e+001) (26, -2.81844147634830830000e+001) (27, 2.62070247902593360000e+001) (28, 2.40356261393195820000e+001) (29, -2.17048563074187230000e+001) (30, 2.72256974948144400000e+001) (31, -1.52303314500184880000e+001) (32, -3.39760159557209420000e+000) (33, 1.73292832479358940000e+001) (34, 2.97213923556003860000e+001) (35, -1.36296394546998480000e+001) (36, 4.06925789348207940000e+001) (37, -3.85311480657829720000e+001) (38, -2.87420221341079410000e+001) (39, -5.02104036711245170000e+001) (40, 3.27230315256955770000e-002) (0, 5.48553201444069460000e+001) (1, -3.00848578452494730000e+002) (2, 1.46999999880790710000e+003) (3, -1.97525473898539160000e+001) (4, -1.70015826583011770000e+002) (5, 7.08138470050037090000e+002) (6, -1.01605120374499850000e+000) (7, -1.23595213131056790000e+002) (8, -3.28257525798527130000e+002) (9, -7.30741771058119750000e+000) (10, -5.50587496259594220000e+002) (11, 4.01796077246966730000e+000) (12, -1.57837317994301290000e+001) (13, -1.75022505862389790000e+001) (14, 1.59252897113829420000e+002) (15, 1.36734942890996470000e+001) (16, 3.76382705764201260000e+002) (17, -2.09663551504395400000e+002) (18, -7.22548689336085030000e+000) (19, -3.52045314719587850000e+002) (20, -2.61899214462165300000e+001) (21, -1.14550018018373570000e+003) (22, 5.96609279550060560000e+000) (23, -1.46628485545947410000e+000) (24, -6.19476022516368200000e+000) (25, 5.49427142396406000000e+002) (26, -2.18151998618506670000e+000) (27, -9.11168845069410050000e+001) (28, 6.07570548235223440000e+002) (29, 1.96915194547710120000e+002) (30, -4.63570239328065840000e+002) (31, 1.43950060715302670000e+000) (32, 3.03027094212663340000e+000) (33, 5.89832976363246790000e+001) (34, -3.20246193404751550000e+001) (35, 2.02703065123903020000e+001) (36, -6.71767001371132300000e+001) (37, 4.23930937069437620000e+002) (38, 6.54966751523006960000e+001) (39, 